{"learner":{"attributes":{"best_iteration":"99","best_ntree_limit":"100","scikit_learn":"{\"use_label_encoder\": false, \"n_estimators\": 100, \"objective\": \"binary:logistic\", \"max_depth\": 3, \"max_leaves\": null, \"max_bin\": null, \"grow_policy\": null, \"learning_rate\": 0.1, \"verbosity\": null, \"booster\": null, \"tree_method\": null, \"gamma\": null, \"min_child_weight\": null, \"max_delta_step\": null, \"subsample\": 0.6, \"sampling_method\": null, \"colsample_bytree\": 1.0, \"colsample_bylevel\": null, \"colsample_bynode\": null, \"reg_alpha\": null, \"reg_lambda\": null, \"scale_pos_weight\": null, \"base_score\": null, \"missing\": NaN, \"num_parallel_tree\": null, \"random_state\": null, \"n_jobs\": null, \"monotone_constraints\": null, \"interaction_constraints\": null, \"importance_type\": null, \"gpu_id\": null, \"validate_parameters\": null, \"predictor\": null, \"enable_categorical\": false, \"max_cat_to_onehot\": null, \"eval_metric\": \"logloss\", \"early_stopping_rounds\": null, \"callbacks\": null, \"classes_\": [0.0, 1.0], \"n_classes_\": 2, \"_estimator_type\": \"classifier\"}"},"feature_names":["0","1"],"feature_types":["float","float"],"gradient_booster":{"model":{"gbtree_model_param":{"num_parallel_tree":"1","num_trees":"100","size_leaf_vector":"0"},"tree_info":[0,0,0,0,0,0,0,0,0,0,0,0,0,0,0,0,0,0,0,0,0,0,0,0,0,0,0,0,0,0,0,0,0,0,0,0,0,0,0,0,0,0,0,0,0,0,0,0,0,0,0,0,0,0,0,0,0,0,0,0,0,0,0,0,0,0,0,0,0,0,0,0,0,0,0,0,0,0,0,0,0,0,0,0,0,0,0,0,0,0,0,0,0,0,0,0,0,0,0,0],"trees":[{"base_weights":[-1.8995451E0,-1.9059068E0,-1.6466599E0,-1.9321654E0,-1.8456264E0,-1.9327233E0,-1.020979E0,-1.8746101E0,-1.9705719E0,-1.6075662E0,-1.8596239E0,-1.4723405E0,-1.9590766E0,-5.695793E-1,-1.9043062E0],"categories":[],"categories_nodes":[],"categories_segments":[],"categories_sizes":[],"default_left":[1,1,1,1,1,1,1,0,0,0,0,0,0,0,0],"id":0,"left_children":[1,3,5,7,9,11,13,-1,-1,-1,-1,-1,-1,-1,-1],"loss_changes":[9.30625E1,8.8734375E1,2.619392E2,8.60625E1,5.6046875E1,9.378662E0,1.8422684E2,0E0,0E0,0E0,0E0,0E0,0E0,0E0,0E0],"parents":[2147483647,0,0,1,1,2,2,3,3,4,4,5,5,6,6],"right_children":[2,4,6,8,10,12,14,-1,-1,-1,-1,-1,-1,-1,-1],"split_conditions":[1.7899525E0,2.2505691E-2,-7.562191E-2,-2.3628311E-2,-2.1576486E0,-6.882641E0,-2.0665362E-2,-1.87461E-1,-1.9705719E-1,-1.6075663E-1,-1.859624E-1,-1.4723405E-1,-1.9590767E-1,-5.695793E-2,-1.9043063E-1],"split_indices":[0,1,1,1,0,1,1,0,0,0,0,0,0,0,0],"split_type":[0,0,0,0,0,0,0,0,0,0,0,0,0,0,0],"sum_hessian":[5.9787E4,5.83135E4,1.4735E3,4.059775E4,1.771575E4,1.00975E3,4.6375E2,1.626825E4,2.43295E4,9.9025E2,1.67255E4,5.775E1,9.52E2,3.08E2,1.5575E2],"tree_param":{"num_deleted":"0","num_feature":"2","num_nodes":"15","size_leaf_vector":"0"}},{"base_weights":[-1.7249762E0,-1.7303392E0,-1.4629132E0,-1.755823E0,-1.6734207E0,-1.7232299E0,-9.0750813E-1,-1.7022282E0,-1.7944119E0,-1.6996115E0,-1.546258E0,-1.2154022E0,-1.758159E0,-4.6774077E-1,-1.7735149E0],"categories":[],"categories_nodes":[],"categories_segments":[],"categories_sizes":[],"default_left":[1,1,1,1,1,1,1,0,0,0,0,0,0,0,0],"id":1,"left_children":[1,3,5,7,9,11,13,-1,-1,-1,-1,-1,-1,-1,-1],"loss_changes":[8.0640625E1,8.115625E1,1.7094385E2,7.9734375E1,5.7160156E1,1.2253418E1,1.44986E2,0E0,0E0,0E0,0E0,0E0,0E0,0E0,0E0],"parents":[2147483647,0,0,1,1,2,2,3,3,4,4,5,5,6,6],"right_children":[2,4,6,8,10,12,14,-1,-1,-1,-1,-1,-1,-1,-1],"split_conditions":[2.0525932E0,2.0046275E-2,-7.303168E-2,-2.152728E-2,6.465074E-2,-6.7598944E0,-2.032848E-2,-1.7022282E-1,-1.794412E-1,-1.6996115E-1,-1.546258E-1,-1.21540226E-1,-1.7581591E-1,-4.677408E-2,-1.7735149E-1],"split_indices":[0,1,1,1,0,1,1,0,0,0,0,0,0,0,0],"split_type":[0,0,0,0,0,0,0,0,0,0,0,0,0,0,0],"sum_hessian":[5.917267E4,5.798052E4,1.1921547E3,4.002878E4,1.7951736E4,8.1027734E2,3.8187732E2,1.677524E4,2.3253543E4,1.4875552E4,3.0761843E3,5.444919E1,7.558281E2,2.5428755E2,1.27589775E2],"tree_param":{"num_deleted":"0","num_feature":"2","num_nodes":"15","size_leaf_vector":"0"}},{"base_weights":[-1.5921582E0,-1.3700464E0,-1.5983036E0,-7.3220366E-1,-1.6423049E0,-1.6036763E0,-1.4058864E0,-1.560108E0,-3.028489E-1,-1.6647835E0,-7.0215017E-1,-1.5524367E0,-1.6205317E0,-1.62716E0,-9.1900724E-1],"categories":[],"categories_nodes":[],"categories_segments":[],"categories_sizes":[],"default_left":[1,1,1,1,1,1,1,0,0,0,0,0,0,0,0],"id":2,"left_children":[1,3,5,7,9,11,13,-1,-1,-1,-1,-1,-1,-1,-1],"loss_changes":[7.6640625E1,2.7006567E2,5.584375E1,1.6627754E2,2.1950684E1,4.4703125E1,1.6384424E2,0E0,0E0,0E0,0E0,0E0,0E0,0E0,0E0],"parents":[2147483647,0,0,1,1,2,2,3,3,4,4,5,5,6,6],"right_children":[2,4,6,8,10,12,14,-1,-1,-1,-1,-1,-1,-1,-1],"split_conditions":[-1.7021255E0,7.6232076E-2,1.6941013E0,2.2035312E-2,1.0702503E1,-6.794225E-2,-7.746042E-2,-1.5601079E-1,-3.028489E-2,-1.6647835E-1,-7.021502E-2,-1.5524368E-1,-1.6205317E-1,-1.62716E-1,-9.190073E-2],"split_indices":[0,1,0,1,1,0,1,0,0,0,0,0,0,0,0],"split_type":[0,0,0,0,0,0,0,0,0,0,0,0,0,0,0],"sum_hessian":[5.775958E4,1.561082E3,5.6198496E4,4.6810437E2,1.0929777E3,5.4664785E4,1.5337079E3,1.5895856E2,3.0914578E2,1.0667028E3,2.6274975E1,1.3554056E4,4.111073E4,1.0528662E3,4.8084174E2],"tree_param":{"num_deleted":"0","num_feature":"2","num_nodes":"15","size_leaf_vector":"0"}},{"base_weights":[-1.4847809E0,-1.4905801E0,-1.275599E0,-1.515402E0,-1.4338639E0,-1.5199065E0,-7.344353E-1,-1.459403E0,-1.5525798E0,-1.4610219E0,-1.2961538E0,-1.0274501E0,-1.5403442E0,-2.7317196E-1,-1.444467E0],"categories":[],"categories_nodes":[],"categories_segments":[],"categories_sizes":[],"default_left":[1,1,1,1,1,1,1,0,0,0,0,0,0,0,0],"id":3,"left_children":[1,3,5,7,9,11,13,-1,-1,-1,-1,-1,-1,-1,-1],"loss_changes":[6.5734375E1,7.419531E1,1.9864233E2,7.625E1,5.9933594E1,8.88501E0,1.5415149E2,0E0,0E0,0E0,0E0,0E0,0E0,0E0,0E0],"parents":[2147483647,0,0,1,1,2,2,3,3,4,4,5,5,6,6],"right_children":[2,4,6,8,10,12,14,-1,-1,-1,-1,-1,-1,-1,-1],"split_conditions":[1.6941013E0,2.2505691E-2,-7.3115006E-2,-2.4264444E-2,6.488481E-2,-7.7484097E0,-2.7273983E-2,-1.459403E-1,-1.5525798E-1,-1.4610219E-1,-1.2961538E-1,-1.0274501E-1,-1.5403442E-1,-2.7317196E-2,-1.444467E-1],"split_indices":[0,1,1,1,0,1,1,0,0,0,0,0,0,0,0],"split_type":[0,0,0,0,0,0,0,0,0,0,0,0,0,0,0],"sum_hessian":[5.575392E4,5.4244008E4,1.5099152E3,3.7713113E4,1.6530895E4,1.0390354E3,4.7087973E2,1.5063719E4,2.2649395E4,1.3799808E4,2.7310864E3,4.3446182E1,9.955892E2,2.8628375E2,1.8459598E2],"tree_param":{"num_deleted":"0","num_feature":"2","num_nodes":"15","size_leaf_vector":"0"}},{"base_weights":[-1.3989227E0,-1.1884943E0,-1.4045289E0,-6.206355E-1,-1.4540868E0,-1.4103096E0,-1.1918741E0,-1.4390786E0,-2.395609E-1,-1.475158E0,-8.6400044E-1,-1.4298588E0,-1.3622342E0,-1.430113E0,-6.962557E-1],"categories":[],"categories_nodes":[],"categories_segments":[],"categories_sizes":[],"default_left":[1,1,1,1,1,1,1,0,0,0,0,0,0,0,0],"id":4,"left_children":[1,3,5,7,9,11,13,-1,-1,-1,-1,-1,-1,-1,-1],"loss_changes":[6.1328125E1,2.0910071E2,6.2265625E1,1.38589E2,1.0512085E1,4.5632812E1,1.6230286E2,0E0,0E0,0E0,0E0,0E0,0E0,0E0,0E0],"parents":[2147483647,0,0,1,1,2,2,3,3,4,4,5,5,6,6],"right_children":[2,4,6,8,10,12,14,-1,-1,-1,-1,-1,-1,-1,-1],"split_conditions":[-1.761416E0,7.82471E-2,1.7455428E0,1.857152E-2,8.586241E0,2.280584E-2,-7.562728E-2,-1.4390786E-1,-2.395609E-2,-1.475158E-1,-8.640005E-2,-1.4298588E-1,-1.3622342E-1,-1.430113E-1,-6.962557E-2],"split_indices":[0,1,0,1,1,1,1,0,0,0,0,0,0,0,0],"split_type":[0,0,0,0,0,0,0,0,0,0,0,0,0,0,0],"sum_hessian":[5.340547E4,1.3914171E3,5.201405E4,4.4446048E2,9.4695667E2,5.063205E4,1.3820004E3,1.4031856E2,3.0414194E2,9.1285986E2,3.4096775E1,3.5974695E4,1.4657354E4,9.3207544E2,4.4992502E2],"tree_param":{"num_deleted":"0","num_feature":"2","num_nodes":"15","size_leaf_vector":"0"}},{"base_weights":[-1.3286431E0,-1.1061009E0,-1.334868E0,-4.9285385E-1,-1.38881E0,-1.2791305E0,-1.3574741E0,-1.3473382E0,-1.0246944E-1,-1.409756E0,-6.8328404E-1,-1.0972115E0,-1.3120842E0,-1.3995655E0,-1.2945518E0],"categories":[],"categories_nodes":[],"categories_segments":[],"categories_sizes":[],"default_left":[1,1,1,1,1,1,1,0,0,0,0,0,0,0,0],"id":5,"left_children":[1,3,5,7,9,11,13,-1,-1,-1,-1,-1,-1,-1,-1],"loss_changes":[6.891406E1,2.4004541E2,6.0546875E1,1.4653088E2,1.3073486E1,8.416406E1,9.128125E1,0E0,0E0,0E0,0E0,0E0,0E0,0E0,0E0],"parents":[2147483647,0,0,1,1,2,2,3,3,4,4,5,5,6,6],"right_children":[2,4,6,8,10,12,14,-1,-1,-1,-1,-1,-1,-1,-1],"split_conditions":[-1.7029152E0,7.6232076E-2,-2.7911011E-2,1.9128809E-2,8.558913E0,-6.7877226E-2,2.2528091E-2,-1.3473383E-1,-1.0246944E-2,-1.409756E-1,-6.83284E-2,-1.0972115E-1,-1.3120842E-1,-1.3995655E-1,-1.294552E-1],"split_indices":[0,1,1,1,1,0,1,0,0,0,0,0,0,0,0],"split_type":[0,0,0,0,0,0,0,0,0,0,0,0,0,0,0],"sum_hessian":[5.0813906E4,1.3875287E3,4.9426375E4,4.3868494E2,9.488438E2,1.427865E4,3.5147727E4,1.3680061E2,3.018843E2,9.205169E2,2.832689E1,2.1950867E3,1.2083563E4,2.1047158E4,1.4100568E4],"tree_param":{"num_deleted":"0","num_feature":"2","num_nodes":"15","size_leaf_vector":"0"}},{"base_weights":[-1.2643604E0,-1.2704568E0,-9.6615964E-1,-1.1990722E0,-1.2939918E0,-1.2625148E0,-4.200623E-1,-1.0129992E0,-1.2320198E0,-1.3262862E0,-1.2301918E0,-7.1767086E-1,-1.3062645E0,2.74747E-3,-1.3952501E0],"categories":[],"categories_nodes":[],"categories_segments":[],"categories_sizes":[],"default_left":[1,1,1,1,1,1,1,0,0,0,0,0,0,0,0],"id":6,"left_children":[1,3,5,7,9,11,13,-1,-1,-1,-1,-1,-1,-1,-1],"loss_changes":[8.630469E1,7.771875E1,1.56268E2,7.055664E1,7.1453125E1,1.4020935E1,1.4114867E2,0E0,0E0,0E0,0E0,0E0,0E0,0E0,0E0],"parents":[2147483647,0,0,1,1,2,2,3,3,4,4,5,5,6,6],"right_children":[2,4,6,8,10,12,14,-1,-1,-1,-1,-1,-1,-1,-1],"split_conditions":[2.113435E0,-8.227208E-2,-7.487557E-2,-3.610459E-2,6.577189E-2,-7.240041E0,-2.133375E-2,-1.0129992E-1,-1.2320198E-1,-1.3262862E-1,-1.2301918E-1,-7.1767084E-2,-1.3062645E-1,2.74747E-4,-1.3952501E-1],"split_indices":[0,0,1,1,0,1,1,0,0,0,0,0,0,0,0],"split_type":[0,0,0,0,0,0,0,0,0,0,0,0,0,0,0],"sum_hessian":[4.8150133E4,4.7182277E4,9.678558E2,1.1711565E4,3.547071E4,6.2653625E2,3.4131952E2,1.7665603E3,9.945006E3,2.3536969E4,1.1933742E4,4.7863564E1,5.7867267E2,2.3878659E2,1.0253293E2],"tree_param":{"num_deleted":"0","num_feature":"2","num_nodes":"15","size_leaf_vector":"0"}},{"base_weights":[-1.2137963E0,-1.2195061E0,-9.6077317E-1,-1.1474415E0,-1.2435762E0,-1.2424449E0,-4.8353574E-1,-9.708287E-1,-1.180065E0,-1.2766582E0,-1.1802185E0,-7.0400095E-1,-1.2809144E0,-1.6570564E-1,-1.2587575E0],"categories":[],"categories_nodes":[],"categories_segments":[],"categories_sizes":[],"default_left":[1,1,1,1,1,1,1,0,0,0,0,0,0,0,0],"id":7,"left_children":[1,3,5,7,9,11,13,-1,-1,-1,-1,-1,-1,-1,-1],"loss_changes":[6.458594E1,7.577344E1,1.3505542E2,6.3134766E1,6.839844E1,1.2230164E1,9.248086E1,0E0,0E0,0E0,0E0,0E0,0E0,0E0,0E0],"parents":[2147483647,0,0,1,1,2,2,3,3,4,4,5,5,6,6],"right_children":[2,4,6,8,10,12,14,-1,-1,-1,-1,-1,-1,-1,-1],"split_conditions":[1.9688084E0,-8.168039E-2,-8.002646E-2,-3.4258008E-2,6.270845E-2,-7.063715E0,-2.133375E-2,-9.7082876E-2,-1.18006505E-1,-1.2766582E-1,-1.18021846E-1,-7.04001E-2,-1.2809144E-1,-1.6570564E-2,-1.2587576E-1],"split_indices":[0,0,1,1,0,1,1,0,0,0,0,0,0,0,0],"split_type":[0,0,0,0,0,0,0,0,0,0,0,0,0,0,0],"sum_hessian":[4.551362E4,4.4505457E4,1.00816394E3,1.1155365E4,3.335009E4,6.329721E2,3.7519183E2,1.7441083E3,9.411257E3,2.1897316E4,1.1452775E4,4.3494614E1,5.8947754E2,2.6695694E2,1.0823488E2],"tree_param":{"num_deleted":"0","num_feature":"2","num_nodes":"15","size_leaf_vector":"0"}},{"base_weights":[-1.1649983E0,-9.2696434E-1,-1.1719133E0,-3.1242827E-1,-1.2251072E0,-1.1791111E0,-9.3321943E-1,-1.2287786E0,7.705989E-2,-1.2595421E0,-7.915727E-1,-1.2012594E0,-1.1187346E0,-1.2025242E0,-4.5786643E-1],"categories":[],"categories_nodes":[],"categories_segments":[],"categories_sizes":[],"default_left":[1,1,1,1,1,1,1,0,0,0,0,0,0,0,0],"id":8,"left_children":[1,3,5,7,9,11,13,-1,-1,-1,-1,-1,-1,-1,-1],"loss_changes":[6.913672E1,2.2114905E2,7.011719E1,1.4154372E2,1.1151733E1,5.2460938E1,1.5539954E2,0E0,0E0,0E0,0E0,0E0,0E0,0E0,0E0],"parents":[2147483647,0,0,1,1,2,2,3,3,4,4,5,5,6,6],"right_children":[2,4,6,8,10,12,14,-1,-1,-1,-1,-1,-1,-1,-1],"split_conditions":[-1.7019398E0,7.356659E-2,1.6771308E0,1.6050015E-2,5.250662E0,3.19348E-2,-7.706082E-2,-1.2287786E-1,7.705989E-3,-1.2595421E-1,-7.915727E-2,-1.2012594E-1,-1.1187346E-1,-1.2025242E-1,-4.5786645E-2],"split_indices":[0,1,0,1,1,1,1,0,0,0,0,0,0,0,0],"split_type":[0,0,0,0,0,0,0,0,0,0,0,0,0,0,0],"sum_hessian":[4.2659633E4,1.208106E3,4.1451527E4,3.9531833E2,8.1278766E2,4.023431E4,1.2172191E3,1.1726758E2,2.7805075E2,7.5121466E2,6.157297E1,2.9422297E4,1.0812011E4,7.760365E2,4.4118265E2],"tree_param":{"num_deleted":"0","num_feature":"2","num_nodes":"15","size_leaf_vector":"0"}},{"base_weights":[-1.1251057E0,-1.1544434E0,-1.0560217E0,-1.0734301E0,-1.2190998E0,-1.0899751E0,-8.8968223E-1,-9.1852164E-1,-1.1092203E0,-1.2231966E0,-9.370371E-1,-8.07826E-1,-1.11352E0,-7.856318E-1,-1.2540791E0],"categories":[],"categories_nodes":[],"categories_segments":[],"categories_sizes":[],"default_left":[1,1,1,1,1,1,1,0,0,0,0,0,0,0,0],"id":9,"left_children":[1,3,5,7,9,11,13,-1,-1,-1,-1,-1,-1,-1,-1],"loss_changes":[7.993359E1,1.4585156E2,6.650586E1,6.816406E1,1.6902344E1,6.49834E1,7.601062E1,0E0,0E0,0E0,0E0,0E0,0E0,0E0,0E0],"parents":[2147483647,0,0,1,1,2,2,3,3,4,4,5,5,6,6],"right_children":[2,4,6,8,10,12,14,-1,-1,-1,-1,-1,-1,-1,-1],"split_conditions":[2.451175E-2,-1.9084886E-2,6.7017525E-2,-5.6489155E-2,8.3175707E-1,-2.050734E0,1.0418422E0,-9.1852166E-2,-1.1092203E-1,-1.2231966E-1,-9.370371E-2,-8.07826E-2,-1.11352004E-1,-7.8563176E-2,-1.2540792E-1],"split_indices":[1,1,0,0,0,0,1,0,0,0,0,0,0,0,0],"split_type":[0,0,0,0,0,0,0,0,0,0,0,0,0,0,0],"sum_hessian":[4.0039934E4,2.8093775E4,1.194616E4,1.2477401E4,1.5616373E4,9.916447E3,2.0297125E3,2.3467568E3,1.0130645E4,1.5389507E4,2.2686693E2,7.6649725E2,9.14995E3,1.5813324E3,4.4838013E2],"tree_param":{"num_deleted":"0","num_feature":"2","num_nodes":"15","size_leaf_vector":"0"}},{"base_weights":[-1.0850512E0,-1.1141425E0,-1.0189023E0,-1.0265758E0,-1.1806775E0,-1.0525924E0,-8.586211E-1,-8.551007E-1,-1.0656458E0,-9.39556E-1,-1.1856469E0,-7.511302E-1,-1.0781837E0,-7.652199E-1,-1.228289E0],"categories":[],"categories_nodes":[],"categories_segments":[],"categories_sizes":[],"default_left":[1,1,1,1,1,1,1,0,0,0,0,0,0,0,0],"id":10,"left_children":[1,3,5,7,9,11,13,-1,-1,-1,-1,-1,-1,-1,-1],"loss_changes":[7.092969E1,1.5026953E2,6.092871E1,7.434766E1,1.6582031E1,7.215332E1,6.7917114E1,0E0,0E0,0E0,0E0,0E0,0E0,0E0,0E0],"parents":[2147483647,0,0,1,1,2,2,3,3,4,4,5,5,6,6],"right_children":[2,4,6,8,10,12,14,-1,-1,-1,-1,-1,-1,-1,-1],"split_conditions":[2.2520922E-2,-2.3328165E-2,6.5842494E-2,-5.646872E-2,-7.4898314E-1,-2.0504556E0,1.0888534E0,-8.551007E-2,-1.0656458E-1,-9.39556E-2,-1.1856469E-1,-7.511302E-2,-1.07818365E-1,-7.652199E-2,-1.228289E-1],"split_indices":[1,1,0,0,0,0,1,0,0,0,0,0,0,0,0],"split_type":[0,0,0,0,0,0,0,0,0,0,0,0,0,0,0],"sum_hessian":[3.744866E4,2.5998857E4,1.1449803E4,1.12323545E4,1.4766504E4,9.456532E3,1.9932703E3,2.0885947E3,9.14376E3,3.0202023E2,1.4464483E4,7.4232684E2,8.714205E3,1.5936776E3,3.9959265E2],"tree_param":{"num_deleted":"0","num_feature":"2","num_nodes":"15","size_leaf_vector":"0"}},{"base_weights":[-1.0456631E0,-9.607407E-1,-1.0736148E0,-7.467275E-1,-1.0004976E0,-1.126049E0,-9.768555E-1,-1.1661133E0,-6.2146646E-1,-6.738341E-1,-1.0323884E0,-1.1376371E0,-1.0293143E0,-1.0160648E0,-7.9858595E-1],"categories":[],"categories_nodes":[],"categories_segments":[],"categories_sizes":[],"default_left":[1,1,1,1,1,1,1,0,0,0,0,0,0,0,0],"id":11,"left_children":[1,3,5,7,9,11,13,-1,-1,-1,-1,-1,-1,-1,-1],"loss_changes":[8.178906E1,7.28457E1,1.320332E2,7.066687E1,7.5262695E1,1.790039E1,6.37041E1,0E0,0E0,0E0,0E0,0E0,0E0,0E0,0E0],"parents":[2147483647,0,0,1,1,2,2,3,3,4,4,5,5,6,6],"right_children":[2,4,6,8,10,12,14,-1,-1,-1,-1,-1,-1,-1,-1],"split_conditions":[-8.168039E-2,-3.748437E-2,7.103771E-2,-1.1349971E0,-2.1818922E0,1.3572668E-1,2.955602E-2,-1.16611324E-1,-6.2146645E-2,-6.738341E-2,-1.0323884E-1,-1.1376371E-1,-1.0293143E-1,-1.0160648E-1,-7.985859E-2],"split_indices":[0,1,0,1,0,1,1,0,0,0,0,0,0,0,0],"split_type":[0,0,0,0,0,0,0,0,0,0,0,0,0,0,0],"sum_hessian":[3.488825E4,8.648361E3,2.6239887E4,1.3579932E3,7.2903687E3,1.7010951E4,9.228937E3,3.1040823E2,1.047585E3,6.503968E2,6.6399717E3,1.5181553E4,1.8293976E3,7.561201E3,1.6677356E3],"tree_param":{"num_deleted":"0","num_feature":"2","num_nodes":"15","size_leaf_vector":"0"}},{"base_weights":[-1.0126488E0,-1.0482286E0,-9.337218E-1,-9.540626E-1,-1.1311252E0,-8.953664E-1,-1.1063353E0,-9.756138E-1,-6.110093E-1,-1.1364789E0,-7.85867E-1,-1.8608645E-1,-9.289383E-1,-2.838533E-1,-1.1158324E0],"categories":[],"categories_nodes":[],"categories_segments":[],"categories_sizes":[],"default_left":[1,1,1,1,1,1,1,0,0,0,0,0,0,0,0],"id":12,"left_children":[1,3,5,7,9,11,13,-1,-1,-1,-1,-1,-1,-1,-1],"loss_changes":[9.061328E1,1.743457E2,6.6166016E1,7.7237305E1,2.1188477E1,1.9757666E2,1.4055176E1,0E0,0E0,0E0,0E0,0E0,0E0,0E0,0E0],"parents":[2147483647,0,0,1,1,2,2,3,3,4,4,5,5,6,6],"right_children":[2,4,6,8,10,12,14,-1,-1,-1,-1,-1,-1,-1,-1],"split_conditions":[2.2073837E-2,-1.6982779E-2,8.777287E-1,2.1287615E0,7.6615953E-1,-1.7019398E0,-8.864813E0,-9.756138E-2,-6.110093E-2,-1.1364789E-1,-7.85867E-2,-1.8608645E-2,-9.289383E-2,-2.838533E-2,-1.1158325E-1],"split_indices":[1,1,1,0,0,0,0,0,0,0,0,0,0,0,0],"split_type":[0,0,0,0,0,0,0,0,0,0,0,0,0,0,0],"sum_hessian":[3.261462E4,2.2472055E4,1.0142564E4,1.0526744E4,1.1945311E4,8.303647E3,1.838917E3,9.902789E3,6.239544E2,1.1760656E4,1.8465494E2,3.7556552E2,7.928082E3,2.1344093E1,1.8175729E3],"tree_param":{"num_deleted":"0","num_feature":"2","num_nodes":"15","size_leaf_vector":"0"}},{"base_weights":[-9.8300576E-1,-1.0205265E0,-9.002284E-1,-9.213003E-1,-1.1070031E0,-6.102569E-1,-9.2323136E-1,-7.490107E-1,-9.629969E-1,-7.8420615E-1,-1.1137283E0,5.4447323E-1,-1.0336514E0,-9.697501E-1,-7.296887E-1],"categories":[],"categories_nodes":[],"categories_segments":[],"categories_sizes":[],"default_left":[1,1,1,1,1,1,1,0,0,0,0,0,0,0,0],"id":13,"left_children":[1,3,5,7,9,11,13,-1,-1,-1,-1,-1,-1,-1,-1],"loss_changes":[9.361914E1,1.7863867E2,6.2818848E1,6.936426E1,2.3402344E1,3.434548E2,7.853906E1,0E0,0E0,0E0,0E0,0E0,0E0,0E0,0E0],"parents":[2147483647,0,0,1,1,2,2,3,3,4,4,5,5,6,6],"right_children":[2,4,6,8,10,12,14,-1,-1,-1,-1,-1,-1,-1,-1],"split_conditions":[2.2049647E-2,-1.8237932E-2,-1.9755878E0,-5.64873E-2,-7.489182E-1,6.897569E-2,6.423088E-2,-7.490107E-2,-9.629969E-2,-7.842062E-2,-1.1137283E-1,5.4447323E-2,-1.0336514E-1,-9.697501E-2,-7.296887E-2],"split_indices":[1,1,0,0,0,1,0,0,0,0,0,0,0,0,0],"split_type":[0,0,0,0,0,0,0,0,0,0,0,0,0,0,0],"sum_hessian":[3.0437625E4,2.093639E4,9.501233E3,9.754909E3,1.1181481E4,7.0034515E2,8.800888E3,1.9045026E3,7.850407E3,2.306034E2,1.0950878E4,1.878186E2,5.1252655E2,7.0922334E3,1.7086547E3],"tree_param":{"num_deleted":"0","num_feature":"2","num_nodes":"15","size_leaf_vector":"0"}},{"base_weights":[-9.527097E-1,-9.632928E-1,-6.2247163E-1,-1.0091947E0,-8.6655486E-1,-1.0383207E0,2.400149E-2,-9.058178E-1,-1.0807056E0,-9.0774333E-1,-6.736528E-1,-1.7056876E-1,-1.0961236E0,4.3748876E-1,-1.0603439E0],"categories":[],"categories_nodes":[],"categories_segments":[],"categories_sizes":[],"default_left":[1,1,1,1,1,1,1,0,0,0,0,0,0,0,0],"id":14,"left_children":[1,3,5,7,9,11,13,-1,-1,-1,-1,-1,-1,-1,-1],"loss_changes":[9.873047E1,1.2140039E2,2.3803787E2,1.3703516E2,6.985205E1,2.683844E1,1.5629236E2,0E0,0E0,0E0,0E0,0E0,0E0,0E0,0E0],"parents":[2147483647,0,0,1,1,2,2,3,3,4,4,5,5,6,6],"right_children":[2,4,6,8,10,12,14,-1,-1,-1,-1,-1,-1,-1,-1],"split_conditions":[1.6771958E0,2.2049647E-2,-7.745773E-2,-2.6825106E-2,6.465074E-2,-6.882641E0,-1.741266E-2,-9.058178E-2,-1.0807057E-1,-9.0774335E-2,-6.736528E-2,-1.7056877E-2,-1.0961236E-1,4.3748878E-2,-1.0603439E-1],"split_indices":[0,1,1,1,0,1,1,0,0,0,0,0,0,0,0],"split_type":[0,0,0,0,0,0,0,0,0,0,0,0,0,0,0],"sum_hessian":[2.8420115E4,2.7535766E4,8.8434894E2,1.8668262E4,8.867504E3,5.3779913E2,3.4654977E2,7.638958E3,1.1029305E4,7.3042046E3,1.5632999E3,3.3833473E1,5.0396567E2,2.5131413E2,9.523565E1],"tree_param":{"num_deleted":"0","num_feature":"2","num_nodes":"15","size_leaf_vector":"0"}},{"base_weights":[-9.232864E-1,-9.6576047E-1,-8.3237493E-1,-8.486597E-1,-1.0611744E0,-7.839636E-1,-1.0359255E0,-6.33842E-1,-8.9947045E-1,-6.8706757E-1,-1.068365E0,2.2730771E-2,-8.275285E-1,-1.0457788E0,-1.0799997E-1],"categories":[],"categories_nodes":[],"categories_segments":[],"categories_sizes":[],"default_left":[1,1,1,1,1,1,1,0,0,0,0,0,0,0,0],"id":15,"left_children":[1,3,5,7,9,11,13,-1,-1,-1,-1,-1,-1,-1,-1],"loss_changes":[1.0159766E2,2.0098242E2,8.247461E1,8.8032715E1,2.6039062E1,2.4012354E2,1.4706421E1,0E0,0E0,0E0,0E0,0E0,0E0,0E0,0E0],"parents":[2147483647,0,0,1,1,2,2,3,3,4,4,5,5,6,6],"right_children":[2,4,6,8,10,12,14,-1,-1,-1,-1,-1,-1,-1,-1],"split_conditions":[2.2049647E-2,-2.3584409E-2,8.146261E-1,-5.646872E-2,-8.033227E-1,-1.6733303E0,1.0256226E1,-6.33842E-2,-8.9947045E-2,-6.870676E-2,-1.068365E-1,2.2730771E-3,-8.2752846E-2,-1.0457788E-1,-1.07999975E-2],"split_indices":[1,1,1,0,0,0,1,0,0,0,0,0,0,0,0],"split_type":[0,0,0,0,0,0,0,0,0,0,0,0,0,0,0],"sum_hessian":[2.6518736E4,1.8067793E4,8.450943E3,8.116442E3,9.951352E3,6.83112E3,1.619823E3,1.5551318E3,6.56131E3,1.894851E2,9.761866E3,3.5003177E2,6.4810884E3,1.6026777E3,1.7145239E1],"tree_param":{"num_deleted":"0","num_feature":"2","num_nodes":"15","size_leaf_vector":"0"}},{"base_weights":[-8.939456E-1,-9.0617234E-1,-5.0642014E-1,-7.879945E-1,-9.5265174E-1,-9.8504424E-1,1.5245606E-1,-5.5627227E-1,-8.4008247E-1,-1.0145673E0,-8.4964806E-1,-7.8785144E-2,-1.0423911E0,5.3770477E-1,-9.318284E-1],"categories":[],"categories_nodes":[],"categories_segments":[],"categories_sizes":[],"default_left":[1,1,1,1,1,1,1,0,0,0,0,0,0,0,0],"id":16,"left_children":[1,3,5,7,9,11,13,-1,-1,-1,-1,-1,-1,-1,-1],"loss_changes":[1.1637695E2,1.3054492E2,2.387046E2,8.104199E1,1.08518555E2,2.269696E1,1.3382144E2,0E0,0E0,0E0,0E0,0E0,0E0,0E0,0E0],"parents":[2147483647,0,0,1,1,2,2,3,3,4,4,5,5,6,6],"right_children":[2,4,6,8,10,12,14,-1,-1,-1,-1,-1,-1,-1,-1],"split_conditions":[1.7476978E0,-6.8083435E-2,-7.975857E-2,-3.1862207E-2,5.6856506E-2,-7.240041E0,-2.0351777E-2,-5.5627227E-2,-8.400825E-2,-1.01456724E-1,-8.4964804E-2,-7.878515E-3,-1.04239106E-1,5.377048E-2,-9.318284E-2],"split_indices":[0,0,1,1,0,1,1,0,0,0,0,0,0,0,0],"split_type":[0,0,0,0,0,0,0,0,0,0,0,0,0,0,0],"sum_hessian":[2.4657361E4,2.3901896E4,7.554656E2,6.7520874E3,1.7149809E4,4.3730283E2,3.1816272E2,1.2413611E3,5.5107266E3,1.0705742E4,6.444066E3,2.6166378E1,4.1113644E2,2.35126E2,8.303671E1],"tree_param":{"num_deleted":"0","num_feature":"2","num_nodes":"15","size_leaf_vector":"0"}},{"base_weights":[-8.6363626E-1,-8.76543E-1,-4.7754583E-1,-9.3341243E-1,-7.599597E-1,-9.4997996E-1,1.4014447E-1,-8.1029105E-1,-1.0273124E0,-8.100397E-1,-5.2740747E-1,-3.8568202E-1,-1.0191056E0,4.7382537E-1,-9.689039E-1],"categories":[],"categories_nodes":[],"categories_segments":[],"categories_sizes":[],"default_left":[1,1,1,1,1,1,1,0,0,0,0,0,0,0,0],"id":17,"left_children":[1,3,5,7,9,11,13,-1,-1,-1,-1,-1,-1,-1,-1],"loss_changes":[1.1414453E2,1.4677734E2,2.1779315E2,1.7197363E2,8.457666E1,1.6097717E1,1.204043E2,0E0,0E0,0E0,0E0,0E0,0E0,0E0,0E0],"parents":[2147483647,0,0,1,1,2,2,3,3,4,4,5,5,6,6],"right_children":[2,4,6,8,10,12,14,-1,-1,-1,-1,-1,-1,-1,-1],"split_conditions":[1.6942222E0,2.2049647E-2,-7.562728E-2,-2.3556635E-2,6.7214444E-2,-4.98329E0,-1.41706215E-2,-8.102911E-2,-1.0273124E-1,-8.100397E-2,-5.274075E-2,-3.8568202E-2,-1.01910554E-1,4.7382537E-2,-9.689039E-2],"split_indices":[0,1,1,1,0,1,1,0,0,0,0,0,0,0,0],"split_type":[0,0,0,0,0,0,0,0,0,0,0,0,0,0,0],"sum_hessian":[2.2988959E4,2.2244082E4,7.448759E2,1.49462705E4,7.297812E3,4.2175952E2,3.2311642E2,6.4710605E3,8.47521E3,6.0026587E3,1.2951532E3,4.6744698E1,3.7501483E2,2.488249E2,7.429153E1],"tree_param":{"num_deleted":"0","num_feature":"2","num_nodes":"15","size_leaf_vector":"0"}},{"base_weights":[-8.371854E-1,-8.897344E-1,-7.262948E-1,-7.596952E-1,-1.0158398E0,-6.8191206E-1,-1.0043479E0,-7.9533464E-1,-3.963102E-1,-5.241425E-1,-1.0263041E0,5.4706458E-2,-7.252345E-1,-2.9639593E-1,-1.0421048E0],"categories":[],"categories_nodes":[],"categories_segments":[],"categories_sizes":[],"default_left":[1,1,1,1,1,1,1,0,0,0,0,0,0,0,0],"id":18,"left_children":[1,3,5,7,9,11,13,-1,-1,-1,-1,-1,-1,-1,-1],"loss_changes":[1.24708984E2,2.3850195E2,8.473755E1,9.2768555E1,3.7560547E1,1.9062817E2,2.5102966E1,0E0,0E0,0E0,0E0,0E0,0E0,0E0,0E0],"parents":[2147483647,0,0,1,1,2,2,3,3,4,4,5,5,6,6],"right_children":[2,4,6,8,10,12,14,-1,-1,-1,-1,-1,-1,-1,-1],"split_conditions":[2.2786127E-2,-1.6834676E-2,1.1267884E0,1.7038918E0,-8.033412E-1,-1.7019398E0,-4.5686493E0,-7.9533465E-2,-3.963102E-2,-5.241425E-2,-1.02630414E-1,5.470646E-3,-7.252345E-2,-2.9639592E-2,-1.0421049E-1],"split_indices":[1,1,1,0,0,0,0,0,0,0,0,0,0,0,0],"split_type":[0,0,0,0,0,0,0,0,0,0,0,0,0,0,0],"sum_hessian":[2.1511023E4,1.4590048E4,6.920975E3,7.186446E3,7.403602E3,5.971292E3,9.4968304E2,6.5434946E3,6.42951E2,1.5534442E2,7.2482573E3,3.3166568E2,5.6396265E3,4.853267E1,9.011504E2],"tree_param":{"num_deleted":"0","num_feature":"2","num_nodes":"15","size_leaf_vector":"0"}},{"base_weights":[-8.155075E-1,-6.7757046E-1,-8.617806E-1,-3.96005E-1,-7.351147E-1,-9.4612193E-1,-7.220821E-1,-1.0215033E0,-2.4873501E-1,-3.7294844E-1,-8.012224E-1,-9.643814E-1,-7.823942E-1,-7.799959E-1,-4.597286E-1],"categories":[],"categories_nodes":[],"categories_segments":[],"categories_sizes":[],"default_left":[1,1,1,1,1,1,1,0,0,0,0,0,0,0,0],"id":19,"left_children":[1,3,5,7,9,11,13,-1,-1,-1,-1,-1,-1,-1,-1],"loss_changes":[1.2779785E2,8.164795E1,1.7673047E2,7.899751E1,1.0020654E2,2.7305664E1,8.583252E1,0E0,0E0,0E0,0E0,0E0,0E0,0E0,0E0],"parents":[2147483647,0,0,1,1,2,2,3,3,4,4,5,5,6,6],"right_children":[2,4,6,8,10,12,14,-1,-1,-1,-1,-1,-1,-1,-1],"split_conditions":[-8.7544404E-2,-3.610459E-2,6.5317675E-2,-1.3294032E0,-1.7019212E0,1.6231346E-1,3.774422E-2,-1.02150336E-1,-2.48735E-2,-3.7294846E-2,-8.012224E-2,-9.643814E-2,-7.823942E-2,-7.799959E-2,-4.597286E-2],"split_indices":[0,1,0,1,0,1,1,0,0,0,0,0,0,0,0],"split_type":[0,0,0,0,0,0,0,0,0,0,0,0,0,0,0],"sum_hessian":[2.0112764E4,5.056204E3,1.505656E4,8.59335E2,4.196869E3,9.384816E3,5.671743E3,1.626361E2,6.96699E2,6.4884735E2,3.548022E3,8.438803E3,9.460136E2,4.644508E3,1.0272351E3],"tree_param":{"num_deleted":"0","num_feature":"2","num_nodes":"15","size_leaf_vector":"0"}},{"base_weights":[-7.800484E-1,-6.466442E-1,-8.3016217E-1,-3.5940942E-1,-7.110643E-1,-9.274741E-1,-6.797498E-1,-9.747586E-1,-1.917403E-1,-3.8459134E-1,-7.688152E-1,-7.6371574E-1,-9.517904E-1,-7.419488E-1,-4.153852E-1],"categories":[],"categories_nodes":[],"categories_segments":[],"categories_sizes":[],"default_left":[1,1,1,1,1,1,1,0,0,0,0,0,0,0,0],"id":20,"left_children":[1,3,5,7,9,11,13,-1,-1,-1,-1,-1,-1,-1,-1],"loss_changes":[1.2505078E2,9.4748535E1,1.9919531E2,9.70646E1,7.875464E1,3.2270508E1,8.793628E1,0E0,0E0,0E0,0E0,0E0,0E0,0E0,0E0],"parents":[2147483647,0,0,1,1,2,2,3,3,4,4,5,5,6,6],"right_children":[2,4,6,8,10,12,14,-1,-1,-1,-1,-1,-1,-1,-1],"split_conditions":[-7.362792E-2,-3.4258008E-2,6.528424E-2,-1.1079481E0,-1.7095009E0,-4.0547717E-2,3.3983864E-2,-9.7475864E-2,-1.917403E-2,-3.8459133E-2,-7.688152E-2,-7.637157E-2,-9.517904E-2,-7.419488E-2,-4.1538518E-2],"split_indices":[0,1,0,1,0,0,1,0,0,0,0,0,0,0,0],"split_type":[0,0,0,0,0,0,0,0,0,0,0,0,0,0,0],"sum_hessian":[1.8784498E4,5.133337E3,1.3651161E4,9.4158734E2,4.19175E3,8.285527E3,5.3656333E3,2.0059305E2,7.4099426E2,6.311942E2,3.5605557E3,1.0754329E3,7.210094E3,4.342205E3,1.02342847E3],"tree_param":{"num_deleted":"0","num_feature":"2","num_nodes":"15","size_leaf_vector":"0"}},{"base_weights":[-7.553307E-1,-7.725418E-1,-3.2816845E-1,-8.4451205E-1,-6.3896525E-1,-8.875587E-1,3.2542267E-1,-6.967888E-1,-9.7719854E-1,-5.742782E-1,-9.0674263E-1,-1.8865129E-2,-9.5265526E-1,5.940617E-1,-9.834692E-1],"categories":[],"categories_nodes":[],"categories_segments":[],"categories_sizes":[],"default_left":[1,1,1,1,1,1,1,0,0,0,0,0,0,0,0],"id":21,"left_children":[1,3,5,7,9,11,13,-1,-1,-1,-1,-1,-1,-1,-1],"loss_changes":[1.2926367E2,1.6225195E2,2.5038672E2,2.1495508E2,1.0225293E2,2.0840454E1,1.1176477E2,0E0,0E0,0E0,0E0,0E0,0E0,0E0,0E0],"parents":[2147483647,0,0,1,1,2,2,3,3,4,4,5,5,6,6],"right_children":[2,4,6,8,10,12,14,-1,-1,-1,-1,-1,-1,-1,-1],"split_conditions":[1.5612994E0,1.8576896E-2,-7.7036634E-2,-1.9223759E-2,7.6763284E-1,-6.7598944E0,3.4395041E0,-6.967888E-2,-9.7719856E-2,-5.742782E-2,-9.0674266E-2,-1.886513E-3,-9.526553E-2,5.940617E-2,-9.834692E-2],"split_indices":[0,1,1,1,1,1,0,0,0,0,0,0,0,0,0],"split_type":[0,0,0,0,0,0,0,0,0,0,0,0,0,0,0],"sum_hessian":[1.761561E4,1.6932559E4,6.8305176E2,1.1000327E4,5.93223E3,3.678561E2,3.1519565E2,5.2081797E3,5.792148E3,4.7805386E3,1.1516913E3,2.5733974E1,3.4212213E2,2.6197388E2,5.3221786E1],"tree_param":{"num_deleted":"0","num_feature":"2","num_nodes":"15","size_leaf_vector":"0"}},{"base_weights":[-7.2189087E-1,-5.676128E-1,-7.7851474E-1,-5.0059474E-1,-8.630261E-1,-8.8862085E-1,-6.1202854E-1,9.393559E-3,-6.0079134E-1,-9.1378796E-1,-2.1786375E-1,-9.1362005E-1,-7.00394E-1,-6.826501E-1,-3.4598035E-1],"categories":[],"categories_nodes":[],"categories_segments":[],"categories_sizes":[],"default_left":[1,1,1,1,1,1,1,0,0,0,0,0,0,0,0],"id":22,"left_children":[1,3,5,7,9,11,13,-1,-1,-1,-1,-1,-1,-1,-1],"loss_changes":[1.4429785E2,8.7710815E1,2.215835E2,1.8555835E2,2.6716858E1,3.367041E1,9.04563E1,0E0,0E0,0E0,0E0,0E0,0E0,0E0,0E0],"parents":[2147483647,0,0,1,1,2,2,3,3,4,4,5,5,6,6],"right_children":[2,4,6,8,10,12,14,-1,-1,-1,-1,-1,-1,-1,-1],"split_conditions":[-8.0189526E-2,6.3358796E-1,6.434699E-2,-9.2379844E-1,-3.188281E-1,1.3309076E-1,2.8846417E-2,9.393559E-4,-6.0079135E-2,-9.13788E-2,-2.1786375E-2,-9.136201E-2,-7.00394E-2,-6.826501E-2,-3.4598034E-2],"split_indices":[0,1,0,0,0,1,1,0,0,0,0,0,0,0,0],"split_type":[0,0,0,0,0,0,0,0,0,0,0,0,0,0,0],"sum_hessian":[1.6567594E4,4.4510986E3,1.2116496E4,3.6302307E3,8.2086774E2,7.29054E3,4.825956E3,5.962581E2,3.0339727E3,7.6060626E2,6.0261448E1,6.432375E3,8.581647E2,3.8124019E3,1.0135543E3],"tree_param":{"num_deleted":"0","num_feature":"2","num_nodes":"15","size_leaf_vector":"0"}},{"base_weights":[-7.014184E-1,-5.582117E-1,-7.52492E-1,-2.1644378E-1,-6.310305E-1,-8.665859E-1,-5.8932596E-1,-9.2994004E-1,-6.772568E-2,-2.7748737E-1,-7.026534E-1,-8.9491636E-1,-6.228296E-1,-6.573178E-1,-3.4591228E-1],"categories":[],"categories_nodes":[],"categories_segments":[],"categories_sizes":[],"default_left":[1,1,1,1,1,1,1,0,0,0,0,0,0,0,0],"id":23,"left_children":[1,3,5,7,9,11,13,-1,-1,-1,-1,-1,-1,-1,-1],"loss_changes":[1.13351074E2,1.0172888E2,2.128877E2,7.638291E1,8.5232056E1,4.6013184E1,7.789282E1,0E0,0E0,0E0,0E0,0E0,0E0,0E0,0E0],"parents":[2147483647,0,0,1,1,2,2,3,3,4,4,5,5,6,6],"right_children":[2,4,6,8,10,12,14,-1,-1,-1,-1,-1,-1,-1,-1],"split_conditions":[-8.754255E-2,-3.696023E-2,5.849226E-2,-1.3084555E0,-1.7021348E0,1.6249624E-1,2.885717E-2,-9.2994004E-2,-6.772568E-3,-2.7748737E-2,-7.0265345E-2,-8.9491636E-2,-6.228296E-2,-6.5731786E-2,-3.4591228E-2],"split_indices":[0,1,0,1,0,1,1,0,0,0,0,0,0,0,0],"split_type":[0,0,0,0,0,0,0,0,0,0,0,0,0,0,0],"sum_hessian":[1.5554104E4,4.0920957E3,1.1462008E4,7.1944135E2,3.3726543E3,6.742795E3,4.719213E3,1.23185974E2,5.962554E2,5.689743E2,2.8036802E3,6.0383228E3,7.0447217E2,3.687497E3,1.0317156E3],"tree_param":{"num_deleted":"0","num_feature":"2","num_nodes":"15","size_leaf_vector":"0"}},{"base_weights":[-6.734234E-1,-5.277576E-1,-7.392144E-1,-2.3340145E-1,-6.034749E-1,-8.7824667E-1,-5.74058E-1,-8.898845E-1,-6.3451976E-2,-1.8680581E-1,-6.748899E-1,-9.0719754E-1,-6.684094E-1,-6.473928E-1,-3.0161962E-1],"categories":[],"categories_nodes":[],"categories_segments":[],"categories_sizes":[],"default_left":[1,1,1,1,1,1,1,0,0,0,0,0,0,0,0],"id":24,"left_children":[1,3,5,7,9,11,13,-1,-1,-1,-1,-1,-1,-1,-1],"loss_changes":[1.3999463E2,1.01517334E2,2.3114746E2,1.04243225E2,1.0780945E2,3.2657715E1,9.198694E1,0E0,0E0,0E0,0E0,0E0,0E0,0E0,0E0],"parents":[2147483647,0,0,1,1,2,2,3,3,4,4,5,5,6,6],"right_children":[2,4,6,8,10,12,14,-1,-1,-1,-1,-1,-1,-1,-1],"split_conditions":[-5.646965E-2,-3.1889983E-2,5.3146556E-2,-1.0921702E0,-1.761351E0,1.3593721E-1,3.386022E-2,-8.8988446E-2,-6.3451976E-3,-1.8680582E-2,-6.748899E-2,-9.071975E-2,-6.684094E-2,-6.473928E-2,-3.0161962E-2],"split_indices":[0,1,0,1,0,1,1,0,0,0,0,0,0,0,0],"split_type":[0,0,0,0,0,0,0,0,0,0,0,0,0,0,0],"sum_hessian":[1.46476E4,4.560148E3,1.0087451E4,9.338453E2,3.6263027E3,5.474544E3,4.612907E3,1.9116693E2,7.4267834E2,5.311185E2,3.095184E3,4.8078857E3,6.6665857E2,3.6334744E3,9.794326E2],"tree_param":{"num_deleted":"0","num_feature":"2","num_nodes":"15","size_leaf_vector":"0"}},{"base_weights":[-6.37629E-1,-7.073991E-1,-5.115568E-1,-5.1586646E-1,-9.179407E-1,-4.4802076E-1,-8.994635E-1,-5.634063E-1,-9.528402E-2,-9.321459E-1,-2.2226814E-2,2.6209876E-1,-5.0174314E-1,4.3201584E-1,-9.311047E-1],"categories":[],"categories_nodes":[],"categories_segments":[],"categories_sizes":[],"default_left":[1,1,1,1,1,1,1,0,0,0,0,0,0,0,0],"id":25,"left_children":[1,3,5,7,9,11,13,-1,-1,-1,-1,-1,-1,-1,-1],"loss_changes":[1.2106787E2,3.5779053E2,1.20898926E2,9.300903E1,5.381201E1,1.6154321E2,2.954309E1,0E0,0E0,0E0,0E0,0E0,0E0,0E0,0E0],"parents":[2147483647,0,0,1,1,2,2,3,3,4,4,5,5,6,6],"right_children":[2,4,6,8,10,12,14,-1,-1,-1,-1,-1,-1,-1,-1],"split_conditions":[1.7898653E-2,-1.8414438E-2,1.0638112E0,1.6771122E0,8.547654E-1,-1.679916E0,-8.008664E0,-5.634063E-2,-9.528402E-3,-9.3214594E-2,-2.2226814E-3,2.6209876E-2,-5.0174315E-2,4.3201584E-2,-9.311047E-2],"split_indices":[1,1,1,0,0,0,0,0,0,0,0,0,0,0,0],"split_type":[0,0,0,0,0,0,0,0,0,0,0,0,0,0,0],"sum_hessian":[1.3804038E4,8.883288E3,4.92075E3,4.65344E3,4.229848E3,4.230055E3,6.9069495E2,4.1805586E3,4.728816E2,4.1637734E3,6.6074524E1,2.9723453E2,3.9328206E3,1.5738927E1,6.74956E2],"tree_param":{"num_deleted":"0","num_feature":"2","num_nodes":"15","size_leaf_vector":"0"}},{"base_weights":[-6.0748434E-1,-6.3645864E-1,-2.6325345E-1,-7.303046E-1,-4.8271856E-1,-7.7353287E-1,3.5857835E-1,-5.3707796E-1,-9.2791635E-1,-4.11272E-1,-8.3962E-1,2.841159E-1,-8.085293E-1,9.1142905E-1,-2.4666141E-1],"categories":[],"categories_nodes":[],"categories_segments":[],"categories_sizes":[],"default_left":[1,1,1,1,1,1,1,0,0,0,0,0,0,0,0],"id":26,"left_children":[1,3,5,7,9,11,13,-1,-1,-1,-1,-1,-1,-1,-1],"loss_changes":[1.298584E2,1.7312598E2,3.2197244E2,2.8451855E2,1.15944824E2,2.0853088E1,1.5335703E2,0E0,0E0,0E0,0E0,0E0,0E0,0E0,0E0],"parents":[2147483647,0,0,1,1,2,2,3,3,4,4,5,5,6,6],"right_children":[2,4,6,8,10,12,14,-1,-1,-1,-1,-1,-1,-1,-1],"split_conditions":[8.6186206E-1,1.8576896E-2,-7.972184E-2,-1.4651574E-2,8.717258E-1,-7.745901E0,-2.7634159E-2,-5.3707797E-2,-9.279164E-2,-4.11272E-2,-8.3962E-2,2.8411591E-2,-8.085293E-2,9.114291E-2,-2.4666142E-2],"split_indices":[0,1,1,1,1,1,1,0,0,0,0,0,0,0,0],"split_type":[0,0,0,0,0,0,0,0,0,0,0,0,0,0,0],"sum_hessian":[1.3035668E4,1.2022842E4,1.012826E3,7.46333E3,4.5595117E3,5.5617834E2,4.5664767E2,3.7754133E3,3.6879167E3,3.8007983E3,7.5871313E2,1.758591E1,5.385924E2,2.3838823E2,2.1825945E2],"tree_param":{"num_deleted":"0","num_feature":"2","num_nodes":"15","size_leaf_vector":"0"}},{"base_weights":[-5.811422E-1,-4.1340467E-1,-6.4969367E-1,-8.776929E-2,-4.980503E-1,-7.909007E-1,-4.5239902E-1,-8.7936544E-1,6.0825996E-2,-7.793414E-1,-3.9815196E-1,-5.968972E-1,-8.32097E-1,-5.3059393E-1,-1.7871508E-1],"categories":[],"categories_nodes":[],"categories_segments":[],"categories_sizes":[],"default_left":[1,1,1,1,1,1,1,0,0,0,0,0,0,0,0],"id":27,"left_children":[1,3,5,7,9,11,13,-1,-1,-1,-1,-1,-1,-1,-1],"loss_changes":[1.4151562E2,9.863501E1,2.434524E2,8.7076126E1,7.952948E1,4.0259033E1,7.808258E1,0E0,0E0,0E0,0E0,0E0,0E0,0E0,0E0],"parents":[2147483647,0,0,1,1,2,2,3,3,4,4,5,5,6,6],"right_children":[2,4,6,8,10,12,14,-1,-1,-1,-1,-1,-1,-1,-1],"split_conditions":[-7.354246E-2,-3.1845182E-2,6.965554E-2,-1.3290627E0,1.551611E-2,-3.2014094E-2,2.9306943E-2,-8.793654E-2,6.0825995E-3,-7.793414E-2,-3.98152E-2,-5.968972E-2,-8.32097E-2,-5.3059395E-2,-1.7871508E-2],"split_indices":[0,1,0,1,1,0,1,0,0,0,0,0,0,0,0],"split_type":[0,0,0,0,0,0,0,0,0,0,0,0,0,0,0],"sum_hessian":[1.2329485E4,3.5790354E3,8.750449E3,7.388157E2,2.8402197E3,5.098419E3,3.6520308E3,1.15991005E2,6.2282465E2,7.425541E2,2.0976658E3,8.95724E2,4.202695E3,2.839742E3,8.122887E2],"tree_param":{"num_deleted":"0","num_feature":"2","num_nodes":"15","size_leaf_vector":"0"}},{"base_weights":[-5.4910946E-1,-3.8898998E-1,-6.128468E-1,-3.0555716E-1,-7.558435E-1,-7.6048106E-1,-4.168601E-1,1.960792E-1,-4.269416E-1,-8.245844E-1,6.9780566E-2,-5.829654E-1,-8.224635E-1,-4.9885792E-1,-1.4670648E-1],"categories":[],"categories_nodes":[],"categories_segments":[],"categories_sizes":[],"default_left":[1,1,1,1,1,1,1,0,0,0,0,0,0,0,0],"id":28,"left_children":[1,3,5,7,9,11,13,-1,-1,-1,-1,-1,-1,-1,-1],"loss_changes":[1.2000757E2,1.0253287E2,2.434812E2,1.6674434E2,3.5325653E1,5.238452E1,8.016901E1,0E0,0E0,0E0,0E0,0E0,0E0,0E0,0E0],"parents":[2147483647,0,0,1,1,2,2,3,3,4,4,5,5,6,6],"right_children":[2,4,6,8,10,12,14,-1,-1,-1,-1,-1,-1,-1,-1],"split_conditions":[-8.2161546E-2,6.0766774E-1,6.418815E-2,-8.8727486E-1,-3.2220924E-1,-2.2995599E-2,2.885717E-2,1.960792E-2,-4.2694163E-2,-8.2458444E-2,6.978057E-3,-5.829654E-2,-8.2246356E-2,-4.988579E-2,-1.4670648E-2],"split_indices":[0,1,0,0,0,0,1,0,0,0,0,0,0,0,0],"split_type":[0,0,0,0,0,0,0,0,0,0,0,0,0,0,0],"sum_hessian":[1.1781369E4,3.3564578E3,8.424912E3,2.7360386E3,6.2041925E2,4.803566E3,3.6213457E3,5.3294824E2,2.2030903E3,5.72735E2,4.7684265E1,1.2458628E3,3.5577031E3,2.777473E3,8.43873E2],"tree_param":{"num_deleted":"0","num_feature":"2","num_nodes":"15","size_leaf_vector":"0"}},{"base_weights":[-5.2255476E-1,-3.5497466E-1,-5.960239E-1,-2.8655234E-1,-6.82745E-1,-7.564531E-1,-4.1429856E-1,2.0907103E-1,-4.0051648E-1,-7.858272E-1,1.817978E-1,-5.6556964E-1,-8.1747E-1,-4.690664E-1,-5.0690968E-2],"categories":[],"categories_nodes":[],"categories_segments":[],"categories_sizes":[],"default_left":[1,1,1,1,1,1,1,0,0,0,0,0,0,0,0],"id":29,"left_children":[1,3,5,7,9,11,13,-1,-1,-1,-1,-1,-1,-1,-1],"loss_changes":[1.3780127E2,7.648276E1,2.268435E2,1.5994876E2,5.270044E1,4.7722412E1,7.277252E1,0E0,0E0,0E0,0E0,0E0,0E0,0E0,0E0],"parents":[2147483647,0,0,1,1,2,2,3,3,4,4,5,5,6,6],"right_children":[2,4,6,8,10,12,14,-1,-1,-1,-1,-1,-1,-1,-1],"split_conditions":[-7.0494816E-2,5.7277E-1,5.421198E-2,-9.0261066E-1,-3.695078E-1,-2.3071768E-2,1.7038918E0,2.0907102E-2,-4.005165E-2,-7.858273E-2,1.817978E-2,-5.6556966E-2,-8.1747E-2,-4.6906643E-2,-5.069097E-3],"split_indices":[0,1,0,0,0,0,0,0,0,0,0,0,0,0,0],"split_type":[0,0,0,0,0,0,0,0,0,0,0,0,0,0,0],"sum_hessian":[1.1208655E4,3.418052E3,7.7906025E3,2.8293064E3,5.887458E2,4.13607E3,3.654533E3,5.2879095E2,2.3005154E3,5.2610736E2,6.263844E1,1.00435254E3,3.1317173E3,3.1758806E3,4.7865225E2],"tree_param":{"num_deleted":"0","num_feature":"2","num_nodes":"15","size_leaf_vector":"0"}},{"base_weights":[-5.0465304E-1,-5.829122E-1,-3.468012E-1,-3.8060352E-1,-8.139218E-1,-2.7214843E-1,-7.768542E-1,-4.3127623E-1,1.4308232E-1,-9.109972E-2,-8.442893E-1,-3.6916703E-1,1.0266469E-1,9.251558E-1,-8.285879E-1],"categories":[],"categories_nodes":[],"categories_segments":[],"categories_sizes":[],"default_left":[1,1,1,1,1,1,1,0,0,0,0,0,0,0,0],"id":30,"left_children":[1,3,5,7,9,11,13,-1,-1,-1,-1,-1,-1,-1,-1],"loss_changes":[1.315105E2,3.327566E2,1.1332425E2,1.0093323E2,7.293921E1,1.0967055E2,4.6777374E1,0E0,0E0,0E0,0E0,0E0,0E0,0E0,0E0],"parents":[2147483647,0,0,1,1,2,2,3,3,4,4,5,5,6,6],"right_children":[2,4,6,8,10,12,14,-1,-1,-1,-1,-1,-1,-1,-1],"split_conditions":[3.1425E-2,-1.6628962E-2,1.048069E0,2.104239E0,-7.489182E-1,6.467117E-2,-6.99507E0,-4.3127622E-2,1.4308232E-2,-9.109972E-3,-8.442893E-2,-3.6916703E-2,1.0266469E-2,9.251558E-2,-8.285879E-2],"split_indices":[1,1,1,0,0,0,0,0,0,0,0,0,0,0,0],"split_type":[0,0,0,0,0,0,0,0,0,0,0,0,0,0,0],"sum_hessian":[1.0661087E4,7.1256606E3,3.535426E3,3.8002263E3,3.3254343E3,3.0138804E3,5.215456E2,3.4651128E3,3.351135E2,1.342379E2,3.1911963E3,2.3941748E3,6.1970557E2,1.4887044E1,5.0665857E2],"tree_param":{"num_deleted":"0","num_feature":"2","num_nodes":"15","size_leaf_vector":"0"}},{"base_weights":[-4.752023E-1,-5.630876E-1,-3.2463852E-1,-3.5134614E-1,-8.398731E-1,-2.544832E-1,-8.427819E-1,-4.0139088E-1,1.3556677E-1,-8.6283255E-1,3.2625565E-1,3.8752672E-1,-3.133156E-1,-2.4748392E-2,-9.083324E-1],"categories":[],"categories_nodes":[],"categories_segments":[],"categories_sizes":[],"default_left":[1,1,1,1,1,1,1,0,0,0,0,0,0,0,0],"id":31,"left_children":[1,3,5,7,9,11,13,-1,-1,-1,-1,-1,-1,-1,-1],"loss_changes":[1.3452441E2,3.763529E2,1.3626215E2,8.882236E1,7.4840454E1,1.25074265E2,2.3962433E1,0E0,0E0,0E0,0E0,0E0,0E0,0E0,0E0],"parents":[2147483647,0,0,1,1,2,2,3,3,4,4,5,5,6,6],"right_children":[2,4,6,8,10,12,14,-1,-1,-1,-1,-1,-1,-1,-1],"split_conditions":[1.9691473E-2,-1.7514262E-2,1.1260358E0,2.1115773E0,8.3175707E-1,-1.6913134E0,-4.199048E0,-4.013909E-2,1.3556677E-2,-8.628326E-2,3.2625567E-2,3.875267E-2,-3.133156E-2,-2.4748393E-3,-9.083324E-2],"split_indices":[1,1,1,0,0,0,0,0,0,0,0,0,0,0,0],"split_type":[0,0,0,0,0,0,0,0,0,0,0,0,0,0,0],"sum_hessian":[1.017914E4,6.4256787E3,3.753461E3,3.6418926E3,2.7837864E3,3.3071694E3,4.4629147E2,3.3026255E3,3.3926706E2,2.7302908E3,5.349553E1,2.771523E2,3.030017E3,3.3211266E1,4.130802E2],"tree_param":{"num_deleted":"0","num_feature":"2","num_nodes":"15","size_leaf_vector":"0"}},{"base_weights":[-4.40502E-1,-2.854213E-1,-5.1167613E-1,4.5255736E-2,-3.78685E-1,-6.8340033E-1,-3.2645535E-1,-8.876272E-1,2.1108004E-1,-6.592409E-1,-2.6955852E-1,-7.3222303E-1,-3.753251E-1,-6.9437623E-1,-2.6215905E-1],"categories":[],"categories_nodes":[],"categories_segments":[],"categories_sizes":[],"default_left":[1,1,1,1,1,1,1,0,0,0,0,0,0,0,0],"id":32,"left_children":[1,3,5,7,9,11,13,-1,-1,-1,-1,-1,-1,-1,-1],"loss_changes":[1.0778076E2,9.4948425E1,2.1290881E2,1.05080734E2,7.3334656E1,5.201062E1,7.612344E1,0E0,0E0,0E0,0E0,0E0,0E0,0E0,0E0],"parents":[2147483647,0,0,1,1,2,2,3,3,4,4,5,5,6,6],"right_children":[2,4,6,8,10,12,14,-1,-1,-1,-1,-1,-1,-1,-1],"split_conditions":[-6.7984045E-2,-3.1862207E-2,5.861859E-2,-1.2904288E0,2.344914E-2,1.33459E-1,-7.1324074E-1,-8.876272E-2,2.1108005E-2,-6.592409E-2,-2.6955852E-2,-7.32223E-2,-3.7532512E-2,-6.943762E-2,-2.6215905E-2],"split_indices":[0,1,0,1,1,1,1,0,0,0,0,0,0,0,0],"split_type":[0,0,0,0,0,0,0,0,0,0,0,0,0,0,0],"sum_hessian":[9.7769795E3,3.0771714E3,6.6998086E3,6.7706714E2,2.4001042E3,3.475173E3,3.2246355E3,1.0153059E2,5.7553656E2,6.707123E2,1.729392E3,2.9985903E3,4.7658298E2,4.782367E2,2.7463987E3],"tree_param":{"num_deleted":"0","num_feature":"2","num_nodes":"15","size_leaf_vector":"0"}},{"base_weights":[-4.125896E-1,-2.646088E-1,-4.9737898E-1,3.3028983E-2,-3.5800412E-1,-7.172711E-1,-3.1096807E-1,-6.746105E-1,2.5709525E-1,-6.325266E-1,-2.4080004E-1,-7.9728657E-1,-5.552771E-1,-3.9807227E-1,-3.0663637E-2],"categories":[],"categories_nodes":[],"categories_segments":[],"categories_sizes":[],"default_left":[1,1,1,1,1,1,1,0,0,0,0,0,0,0,0],"id":33,"left_children":[1,3,5,7,9,11,13,-1,-1,-1,-1,-1,-1,-1,-1],"loss_changes":[1.1778674E2,9.5232864E1,2.4463318E2,1.3004248E2,8.374133E1,3.5071533E1,7.896396E1,0E0,0E0,0E0,0E0,0E0,0E0,0E0,0E0],"parents":[2147483647,0,0,1,1,2,2,3,3,4,4,5,5,6,6],"right_children":[2,4,6,8,10,12,14,-1,-1,-1,-1,-1,-1,-1,-1],"split_conditions":[-4.0547717E-2,-2.8693186E-2,5.085594E-2,-7.80429E-1,2.3150785E-2,1.0292111E-2,3.3072673E-2,-6.746105E-2,2.5709525E-2,-6.325266E-2,-2.4080005E-2,-7.9728656E-2,-5.5527713E-2,-3.9807227E-2,-3.0663637E-3],"split_indices":[0,1,0,1,1,1,1,0,0,0,0,0,0,0,0],"split_type":[0,0,0,0,0,0,0,0,0,0,0,0,0,0,0],"sum_hessian":[9.396984E3,3.4244663E3,5.9725186E3,8.180626E2,2.6064036E3,2.7388713E3,3.233647E3,1.9625262E2,6.2181006E2,7.785172E2,1.8278864E3,1.8306943E3,9.081771E2,2.4667026E3,7.669445E2],"tree_param":{"num_deleted":"0","num_feature":"2","num_nodes":"15","size_leaf_vector":"0"}},{"base_weights":[-3.8403782E-1,-4.732027E-1,-2.4395457E-1,-2.6629686E-1,-7.8526753E-1,-1.5677072E-1,-6.9227046E-1,-6.181124E-1,-1.8554728E-1,-8.082966E-1,6.286304E-1,-2.6057237E-1,1.525893E-1,1.1147063E0,-7.334021E-1],"categories":[],"categories_nodes":[],"categories_segments":[],"categories_sizes":[],"default_left":[1,1,1,1,1,1,1,0,0,0,0,0,0,0,0],"id":34,"left_children":[1,3,5,7,9,11,13,-1,-1,-1,-1,-1,-1,-1,-1],"loss_changes":[1.1256079E2,3.556405E2,1.3711104E2,9.4075226E1,7.20354E1,9.446332E1,4.3277435E1,0E0,0E0,0E0,0E0,0E0,0E0,0E0,0E0],"parents":[2147483647,0,0,1,1,2,2,3,3,4,4,5,5,6,6],"right_children":[2,4,6,8,10,12,14,-1,-1,-1,-1,-1,-1,-1,-1],"split_conditions":[1.7898653E-2,-1.6202573E-2,8.1364954E-1,-7.8008854E-1,9.349556E-1,4.3296713E-2,-8.002626E0,-6.181124E-2,-1.8554728E-2,-8.0829665E-2,6.2863044E-2,-2.6057238E-2,1.5258931E-2,1.1147063E-1,-7.334021E-2],"split_indices":[1,1,1,1,0,0,0,0,0,0,0,0,0,0,0],"split_type":[0,0,0,0,0,0,0,0,0,0,0,0,0,0,0],"sum_hessian":[9.019953E3,5.5102354E3,3.509718E3,3.3145012E3,2.195734E3,2.9394363E3,5.702816E2,6.1749615E2,2.6970051E3,2.160965E3,3.4768723E1,2.201058E3,7.3837823E2,1.2111327E1,5.581703E2],"tree_param":{"num_deleted":"0","num_feature":"2","num_nodes":"15","size_leaf_vector":"0"}},{"base_weights":[-3.5892534E-1,-1.9947045E-1,-4.3532714E-1,-1.16693534E-1,-5.7997566E-1,-6.089807E-1,-2.2954954E-1,3.0834818E-1,-2.6016212E-1,-6.8455344E-1,5.715849E-1,-6.614039E-1,-3.1070885E-1,-6.6989374E-1,-1.605831E-1],"categories":[],"categories_nodes":[],"categories_segments":[],"categories_sizes":[],"default_left":[1,1,1,1,1,1,1,0,0,0,0,0,0,0,0],"id":35,"left_children":[1,3,5,7,9,11,13,-1,-1,-1,-1,-1,-1,-1,-1],"loss_changes":[1.06102295E2,8.892365E1,2.104065E2,1.4166467E2,6.1155914E1,4.9750122E1,8.183418E1,0E0,0E0,0E0,0E0,0E0,0E0,0E0,0E0],"parents":[2147483647,0,0,1,1,2,2,3,3,4,4,5,5,6,6],"right_children":[2,4,6,8,10,12,14,-1,-1,-1,-1,-1,-1,-1,-1],"split_conditions":[-6.808251E-2,5.1269567E-1,7.701506E-2,-6.4076865E-1,-2.4423903E-1,1.3572577E-1,-8.155686E-1,3.0834818E-2,-2.6016211E-2,-6.8455346E-2,5.715849E-2,-6.614039E-2,-3.1070886E-2,-6.698938E-2,-1.6058309E-2],"split_indices":[0,1,0,0,0,1,1,0,0,0,0,0,0,0,0],"split_type":[0,0,0,0,0,0,0,0,0,0,0,0,0,0,0],"sum_hessian":[8.715431E3,2.8243867E3,5.891044E3,2.3208127E3,5.035739E2,3.1938381E3,2.6972058E3,5.853875E2,1.7354252E3,4.6202145E2,4.1552452E1,2.7153762E3,4.7846188E2,3.640524E2,2.3331536E3],"tree_param":{"num_deleted":"0","num_feature":"2","num_nodes":"15","size_leaf_vector":"0"}},{"base_weights":[-3.4936285E-1,-2.0923597E-1,-4.346082E-1,6.1676316E-2,-3.011246E-1,-6.639586E-1,-2.6094684E-1,-6.9982064E-1,2.3844883E-1,-6.214237E-1,-1.7551379E-1,-7.149416E-1,-3.3403757E-1,-2.3204282E-1,-9.723276E-1],"categories":[],"categories_nodes":[],"categories_segments":[],"categories_sizes":[],"default_left":[1,1,1,1,1,1,1,0,0,0,0,0,0,0,0],"id":36,"left_children":[1,3,5,7,9,11,13,-1,-1,-1,-1,-1,-1,-1,-1],"loss_changes":[1.0094678E2,7.971045E1,2.0925671E2,1.094226E2,9.607376E1,3.7861877E1,6.133702E1,0E0,0E0,0E0,0E0,0E0,0E0,0E0,0E0],"parents":[2147483647,0,0,1,1,2,2,3,3,4,4,5,5,6,6],"right_children":[2,4,6,8,10,12,14,-1,-1,-1,-1,-1,-1,-1,-1],"split_conditions":[-3.7281774E-2,-2.6465824E-2,5.085594E-2,-8.750426E-1,2.2784336E-2,1.7425217E-1,1.2148435E0,-6.998207E-2,2.3844883E-2,-6.2142372E-2,-1.755138E-2,-7.149416E-2,-3.3403758E-2,-2.3204282E-2,-9.723276E-2],"split_indices":[0,1,0,1,1,1,1,0,0,0,0,0,0,0,0],"split_type":[0,0,0,0,0,0,0,0,0,0,0,0,0,0,0],"sum_hessian":[8.457467E3,3.200279E3,5.2571875E3,8.1063605E2,2.389643E3,2.2641523E3,2.9930354E3,1.5216858E2,6.5846747E2,6.7203973E2,1.7176033E3,1.9600907E3,3.0406158E2,2.8774482E3,1.1558703E2],"tree_param":{"num_deleted":"0","num_feature":"2","num_nodes":"15","size_leaf_vector":"0"}},{"base_weights":[-3.1200242E-1,-3.363261E-1,1.2299772E-1,-4.4660273E-1,-1.8510658E-1,-6.404556E-1,7.0240045E-1,-2.5230104E-1,-7.605752E-1,-1.1809344E-1,-7.131201E-1,6.4401907E-1,-7.7229697E-1,1.0358559E0,-7.386648E-1],"categories":[],"categories_nodes":[],"categories_segments":[],"categories_sizes":[],"default_left":[1,1,1,1,1,1,1,0,0,0,0,0,0,0,0],"id":37,"left_children":[1,3,5,7,9,11,13,-1,-1,-1,-1,-1,-1,-1,-1],"loss_changes":[8.635925E1,1.2875989E2,1.9187138E2,2.7233527E2,1.1526608E2,3.2205544E1,1.1921743E2,0E0,0E0,0E0,0E0,0E0,0E0,0E0,0E0],"parents":[2147483647,0,0,1,1,2,2,3,3,4,4,5,5,6,6],"right_children":[2,4,6,8,10,12,14,-1,-1,-1,-1,-1,-1,-1,-1],"split_conditions":[1.6163077E0,1.5595403E-2,-8.358343E-2,-1.3036244E-2,1.0442344E0,-6.753264E0,-1.7029546E-2,-2.5230104E-2,-7.6057516E-2,-1.1809344E-2,-7.131201E-2,6.440191E-2,-7.72297E-2,1.0358559E-1,-7.386648E-2],"split_indices":[0,1,1,1,1,1,1,0,0,0,0,0,0,0,0],"split_type":[0,0,0,0,0,0,0,0,0,0,0,0,0,0,0],"sum_hessian":[8.1569766E3,7.725236E3,4.3174075E2,4.466264E3,3.2589714E3,1.8623792E2,2.4550282E2,2.7600269E3,1.7062374E3,2.8930251E3,3.659463E2,1.6974806E1,1.692631E2,1.99598E2,4.5904823E1],"tree_param":{"num_deleted":"0","num_feature":"2","num_nodes":"15","size_leaf_vector":"0"}},{"base_weights":[-2.908537E-1,-1.5490285E-1,-3.751777E-1,1.4033328E-1,-2.540376E-1,-6.444591E-1,-2.2301643E-1,-6.713737E-1,2.7064598E-1,1.1138982E-1,-3.3031207E-1,-7.005664E-1,-2.3899521E-1,-3.0313766E-1,3.3392884E-2],"categories":[],"categories_nodes":[],"categories_segments":[],"categories_sizes":[],"default_left":[1,1,1,1,1,1,1,0,0,0,0,0,0,0,0],"id":38,"left_children":[1,3,5,7,9,11,13,-1,-1,-1,-1,-1,-1,-1,-1],"loss_changes":[9.10589E1,8.913835E1,2.0082635E2,8.119716E1,6.357109E1,4.0106873E1,6.442438E1,0E0,0E0,0E0,0E0,0E0,0E0,0E0,0E0],"parents":[2147483647,0,0,1,1,2,2,3,3,4,4,5,5,6,6],"right_children":[2,4,6,8,10,12,14,-1,-1,-1,-1,-1,-1,-1,-1],"split_conditions":[-3.739138E-2,-3.1846076E-2,3.0125193E-2,-1.1078854E0,-1.7029152E0,1.750021E-1,8.347852E-1,-6.7137375E-2,2.7064597E-2,1.1138982E-2,-3.3031207E-2,-7.005664E-2,-2.3899522E-2,-3.0313766E-2,3.3392885E-3],"split_indices":[0,1,0,1,0,1,0,0,0,0,0,0,0,0,0],"split_type":[0,0,0,0,0,0,0,0,0,0,0,0,0,0,0],"sum_hessian":[7.9471514E3,3.043356E3,4.9037954E3,7.649173E2,2.2784387E3,1.7693403E3,3.1344553E3,1.0523918E2,6.596781E2,3.933685E2,1.8850702E3,1.553625E3,2.157153E2,2.388065E3,7.463904E2],"tree_param":{"num_deleted":"0","num_feature":"2","num_nodes":"15","size_leaf_vector":"0"}},{"base_weights":[-2.759036E-1,-1.3680607E-1,-3.509399E-1,-2.5226176E-1,1.8422507E-1,-6.7359996E-1,-1.612325E-1,1.3171254E-1,-3.4044257E-1,-1.4838777E-1,1.1144881E0,4.5300606E-1,-7.049758E-1,-9.568526E-2,-7.017822E-1],"categories":[],"categories_nodes":[],"categories_segments":[],"categories_sizes":[],"default_left":[1,1,1,1,1,1,1,0,0,0,0,0,0,0,0],"id":39,"left_children":[1,3,5,7,9,11,13,-1,-1,-1,-1,-1,-1,-1,-1],"loss_changes":[8.077875E1,1.0068752E2,3.0776544E2,6.767755E1,2.2257368E2,6.61366E1,1.1220641E2,0E0,0E0,0E0,0E0,0E0,0E0,0E0,0E0],"parents":[2147483647,0,0,1,1,2,2,3,3,4,4,5,5,6,6],"right_children":[2,4,6,8,10,12,14,-1,-1,-1,-1,-1,-1,-1,-1],"split_conditions":[-2.646672E-2,-6.571704E-2,1.5850842E-2,-1.01088405E-1,7.3389024E-1,-7.161937E-1,1.0685778E0,1.3171255E-2,-3.404426E-2,-1.48387775E-2,1.1144882E-1,4.5300607E-2,-7.049758E-2,-9.568526E-3,-7.0178226E-2],"split_indices":[1,1,1,0,0,0,1,0,0,0,0,0,0,0,0],"split_type":[0,0,0,0,0,0,0,0,0,0,0,0,0,0,0],"sum_hessian":[7.7429854E3,2.714268E3,5.0287173E3,1.9964711E3,7.177969E2,1.8609708E3,3.1677463E3,3.727735E2,1.6236975E3,5.293646E2,1.8843228E2,5.0059353E1,1.8109115E3,2.8262156E3,3.4153085E2],"tree_param":{"num_deleted":"0","num_feature":"2","num_nodes":"15","size_leaf_vector":"0"}},{"base_weights":[-2.5479305E-1,-3.3542818E-1,-1.274011E-1,-1.5213819E-1,-6.545604E-1,-6.6557184E-2,-6.488536E-1,-5.250026E-1,-8.427074E-2,2.3635946E-1,-6.9950587E-1,-1.681374E-1,2.394794E-1,4.7829935E-1,-7.623283E-1],"categories":[],"categories_nodes":[],"categories_segments":[],"categories_sizes":[],"default_left":[1,1,1,1,1,1,1,0,0,0,0,0,0,0,0],"id":40,"left_children":[1,3,5,7,9,11,13,-1,-1,-1,-1,-1,-1,-1,-1],"loss_changes":[7.738992E1,2.698806E2,9.271106E1,7.417725E1,6.7577576E1,8.146191E1,3.942122E1,0E0,0E0,0E0,0E0,0E0,0E0,0E0,0E0],"parents":[2147483647,0,0,1,1,2,2,3,3,4,4,5,5,6,6],"right_children":[2,4,6,8,10,12,14,-1,-1,-1,-1,-1,-1,-1,-1],"split_conditions":[2.444545E-2,-1.531826E-2,1.1085645E0,-8.609402E-1,-7.127847E-1,5.1139247E-2,-4.199048E0,-5.250026E-2,-8.427074E-3,2.3635946E-2,-6.995059E-2,-1.681374E-2,2.394794E-2,4.7829937E-2,-7.6232836E-2],"split_indices":[1,1,1,1,0,0,0,0,0,0,0,0,0,0,0],"split_type":[0,0,0,0,0,0,0,0,0,0,0,0,0,0,0],"sum_hessian":[7.5370317E3,4.6145396E3,2.9224922E3,2.9320352E3,1.6825043E3,2.618132E3,3.0436017E2,4.5046124E2,2.4815737E3,8.059868E1,1.6019056E3,1.9660183E3,6.521137E2,2.754441E1,2.7681573E2],"tree_param":{"num_deleted":"0","num_feature":"2","num_nodes":"15","size_leaf_vector":"0"}},{"base_weights":[-2.3913766E-1,-1.1595815E-1,-3.2140037E-1,1.0994347E-1,-2.0370385E-1,-6.1762184E-1,-1.7236261E-1,-5.880595E-1,2.3912278E-1,-5.5865425E-1,-1.02969535E-1,6.531205E-2,-6.473597E-1,-2.752139E-1,3.82564E-2],"categories":[],"categories_nodes":[],"categories_segments":[],"categories_sizes":[],"default_left":[1,1,1,1,1,1,1,0,0,0,0,0,0,0,0],"id":41,"left_children":[1,3,5,7,9,11,13,-1,-1,-1,-1,-1,-1,-1,-1],"loss_changes":[7.441614E1,5.837128E1,1.9436197E2,7.445352E1,7.576216E1,2.9978333E1,6.352208E1,0E0,0E0,0E0,0E0,0E0,0E0,0E0,0E0],"parents":[2147483647,0,0,1,1,2,2,3,3,4,4,5,5,6,6],"right_children":[2,4,6,8,10,12,14,-1,-1,-1,-1,-1,-1,-1,-1],"split_conditions":[-3.207633E-2,-2.416141E-2,3.0096397E-2,-8.750336E-1,1.4703203E-2,-4.018669E-1,1.1273279E-2,-5.880595E-2,2.3912279E-2,-5.5865426E-2,-1.0296954E-2,6.531205E-3,-6.473597E-2,-2.752139E-2,3.82564E-3],"split_indices":[0,1,0,1,1,1,1,0,0,0,0,0,0,0,0],"split_type":[0,0,0,0,0,0,0,0,0,0,0,0,0,0,0],"sum_hessian":[7.3465605E3,2.9426577E3,4.403903E3,8.231647E2,2.1194932E3,1.4730278E3,2.930875E3,1.2799714E2,6.9516754E2,4.675333E2,1.6519598E3,6.1415623E1,1.4116122E3,1.9690331E3,9.618419E2],"tree_param":{"num_deleted":"0","num_feature":"2","num_nodes":"15","size_leaf_vector":"0"}},{"base_weights":[-2.1037775E-1,-2.4911164E-1,1.4068265E-1,-1.09502174E-1,-3.6024073E-1,-6.250235E-1,6.137098E-1,-5.7607368E-2,-4.299212E-1,-4.9069962E-1,-1.4017458E-1,6.3793445E-1,-7.27339E-1,8.0216265E-1,-9.842071E-1],"categories":[],"categories_nodes":[],"categories_segments":[],"categories_sizes":[],"default_left":[1,1,1,1,1,1,1,0,0,0,0,0,0,0,0],"id":42,"left_children":[1,3,5,7,9,11,13,-1,-1,-1,-1,-1,-1,-1,-1],"loss_changes":[9.808368E1,1.00719086E2,2.6013602E2,4.786081E1,1.0373364E2,3.5915558E1,1.3443266E2,0E0,0E0,0E0,0E0,0E0,0E0,0E0,0E0],"parents":[2147483647,0,0,1,1,2,2,3,3,4,4,5,5,6,6],"right_children":[2,4,6,8,10,12,14,-1,-1,-1,-1,-1,-1,-1,-1],"split_conditions":[8.342836E-1,-3.5388716E-2,-4.4138783E-1,5.341003E-1,1.5407429E-2,-5.4544773E0,3.5180874E0,-5.7607368E-3,-4.2992122E-2,-4.9069963E-2,-1.4017458E-2,6.379344E-2,-7.27339E-2,8.0216266E-2,-9.842071E-2],"split_indices":[0,0,1,1,1,1,0,0,0,0,0,0,0,0,0],"split_type":[0,0,0,0,0,0,0,0,0,0,0,0,0,0,0],"sum_hessian":[7.209554E3,6.493402E3,7.161524E2,2.8788013E3,3.6146008E3,2.7334982E2,4.4280258E2,2.4785562E3,4.0024512E2,2.2685415E3,1.3460591E3,2.0092915E1,2.5325691E2,3.9653464E2,4.626795E1],"tree_param":{"num_deleted":"0","num_feature":"2","num_nodes":"15","size_leaf_vector":"0"}},{"base_weights":[-2.0827574E-1,-2.849934E-1,-9.967613E-2,-1.1989804E-1,-6.377655E-1,-4.2874746E-2,-6.582048E-1,-4.6275923E-1,-6.540837E-2,-6.737808E-1,8.192702E-1,4.9739784E-1,-1.0363068E-1,5.668609E-1,-7.7067506E-1],"categories":[],"categories_nodes":[],"categories_segments":[],"categories_sizes":[],"default_left":[1,1,1,1,1,1,1,0,0,0,0,0,0,0,0],"id":43,"left_children":[1,3,5,7,9,11,13,-1,-1,-1,-1,-1,-1,-1,-1],"loss_changes":[5.8796295E1,2.4087021E2,9.27505E1,5.2642925E1,6.974927E1,8.721969E1,3.762287E1,0E0,0E0,0E0,0E0,0E0,0E0,0E0,0E0],"parents":[2147483647,0,0,1,1,2,2,3,3,4,4,5,5,6,6],"right_children":[2,4,6,8,10,12,14,-1,-1,-1,-1,-1,-1,-1,-1],"split_conditions":[1.9782862E-2,-1.28057115E-2,1.1267884E0,-9.0086424E-1,8.3175707E-1,-1.7019398E0,-4.5686493E0,-4.6275925E-2,-6.540837E-3,-6.737808E-2,8.1927024E-2,4.9739785E-2,-1.03630675E-2,5.6686092E-2,-7.706751E-2],"split_indices":[1,1,1,1,0,0,0,0,0,0,0,0,0,0,0],"split_type":[0,0,0,0,0,0,0,0,0,0,0,0,0,0,0],"sum_hessian":[7.059508E3,4.13606E3,2.923448E3,2.8184028E3,1.3176571E3,2.6545605E3,2.6888742E2,3.8546683E2,2.432936E3,1.2863972E3,3.125984E1,2.67614E2,2.3869465E3,2.2270382E1,2.4661702E2],"tree_param":{"num_deleted":"0","num_feature":"2","num_nodes":"15","size_leaf_vector":"0"}},{"base_weights":[-1.9221513E-1,-2.647988E-1,-8.821899E-2,-1.1517967E-1,-6.0765916E-1,-3.7078194E-2,-6.045928E-1,-5.500231E-1,-6.550905E-2,4.0951192E-1,-6.6474086E-1,-1.339646E-1,2.3537487E-1,-7.1732813E-1,4.9521977E-1],"categories":[],"categories_nodes":[],"categories_segments":[],"categories_sizes":[],"default_left":[1,1,1,1,1,1,1,0,0,0,0,0,0,0,0],"id":44,"left_children":[1,3,5,7,9,11,13,-1,-1,-1,-1,-1,-1,-1,-1],"loss_changes":[5.2060486E1,2.0836679E2,7.491629E1,6.1089268E1,7.193234E1,6.821756E1,3.2053314E1,0E0,0E0,0E0,0E0,0E0,0E0,0E0,0E0],"parents":[2147483647,0,0,1,1,2,2,3,3,4,4,5,5,6,6],"right_children":[2,4,6,8,10,12,14,-1,-1,-1,-1,-1,-1,-1,-1],"split_conditions":[2.2520922E-2,-1.0204107E-2,1.1260537E0,-1.1080645E0,-7.234854E-1,4.981281E-2,5.18445E0,-5.500231E-2,-6.5509053E-3,4.0951192E-2,-6.647409E-2,-1.339646E-2,2.3537487E-2,-7.173281E-2,4.952198E-2],"split_indices":[1,1,1,1,0,0,1,0,0,0,0,0,0,0,0],"split_type":[0,0,0,0,0,0,0,0,0,0,0,0,0,0,0],"sum_hessian":[6.8989688E3,4.0622166E3,2.8367524E3,2.8290137E3,1.233203E3,2.5820977E3,2.5465483E2,2.8898755E2,2.5400261E3,6.519963E1,1.1680033E3,1.9051278E3,6.769698E2,2.3129399E2,2.3360826E1],"tree_param":{"num_deleted":"0","num_feature":"2","num_nodes":"15","size_leaf_vector":"0"}},{"base_weights":[-1.7039306E-1,-2.0272417E-1,1.1635543E-1,-8.755179E-2,-3.0797195E-1,-5.543804E-1,4.9990323E-1,1.0358206E-1,-1.6666746E-1,-5.6575334E-1,-1.5844692E-1,9.700192E-1,-6.739452E-1,6.5834576E-1,-9.625773E-1],"categories":[],"categories_nodes":[],"categories_segments":[],"categories_sizes":[],"default_left":[1,1,1,1,1,1,1,0,0,0,0,0,0,0,0],"id":45,"left_children":[1,3,5,7,9,11,13,-1,-1,-1,-1,-1,-1,-1,-1],"loss_changes":[6.2899277E1,7.3857025E1,1.7722891E2,4.404833E1,1.22653534E2,4.63489E1,1.02155975E2,0E0,0E0,0E0,0E0,0E0,0E0,0E0,0E0],"parents":[2147483647,0,0,1,1,2,2,3,3,4,4,5,5,6,6],"right_children":[2,4,6,8,10,12,14,-1,-1,-1,-1,-1,-1,-1,-1],"split_conditions":[8.34683E-1,-2.3225963E-2,-3.4214205E-1,-2.4413174E-2,3.1369895E-2,-5.8291683E0,3.506012E0,1.0358206E-2,-1.6666746E-2,-5.6575336E-2,-1.5844693E-2,9.7001925E-2,-6.739452E-2,6.5834574E-2,-9.625773E-2],"split_indices":[0,0,1,1,0,1,0,0,0,0,0,0,0,0,0],"split_type":[0,0,0,0,0,0,0,0,0,0,0,0,0,0,0],"sum_hessian":[6.7810493E3,6.094215E3,6.868344E2,2.9107832E3,3.1834316E3,2.4970795E2,4.3712646E2,8.520426E2,2.0587407E3,1.167638E3,2.0157937E3,1.7643824E1,2.3206412E2,3.948942E2,4.2232285E1],"tree_param":{"num_deleted":"0","num_feature":"2","num_nodes":"15","size_leaf_vector":"0"}},{"base_weights":[-1.5535074E-1,-5.53844E-2,-2.2393356E-1,-7.463159E-3,-3.8483155E-1,-4.7876412E-1,-9.6128196E-2,3.2975104E-1,-1.00890756E-1,-5.786836E-1,8.622825E-1,1.9255974E0,-4.9145573E-1,-7.237486E-2,-9.4624776E-1],"categories":[],"categories_nodes":[],"categories_segments":[],"categories_sizes":[],"default_left":[1,1,1,1,1,1,1,0,0,0,0,0,0,0,0],"id":46,"left_children":[1,3,5,7,9,11,13,-1,-1,-1,-1,-1,-1,-1,-1],"loss_changes":[4.5700195E1,4.285018E1,1.2873694E2,7.472218E1,8.382532E1,4.12417E1,5.313433E1,0E0,0E0,0E0,0E0,0E0,0E0,0E0,0E0],"parents":[2147483647,0,0,1,1,2,2,3,3,4,4,5,5,6,6],"right_children":[2,4,6,8,10,12,14,-1,-1,-1,-1,-1,-1,-1,-1],"split_conditions":[-3.691022E-2,5.501021E-1,3.504733E-2,-7.64802E-1,-3.2610124E-1,-1.0353034E0,1.2623205E0,3.2975104E-2,-1.0089076E-2,-5.786836E-2,8.622825E-2,1.9255975E-1,-4.9145576E-2,-7.237486E-3,-9.462478E-2],"split_indices":[0,1,0,0,0,1,1,0,0,0,0,0,0,0,0],"split_type":[0,0,0,0,0,0,0,0,0,0,0,0,0,0,0],"sum_hessian":[6.666556E3,2.7133635E3,3.9531929E3,2.3696917E3,3.436717E2,1.3195005E3,2.6336924E3,5.1355505E2,1.8561366E3,2.979017E2,4.577001E1,6.1370916E0,1.3133634E3,2.56316E3,7.053256E1],"tree_param":{"num_deleted":"0","num_feature":"2","num_nodes":"15","size_leaf_vector":"0"}},{"base_weights":[-1.4159484E-1,-1.2576441E-1,-6.1292756E-1,-2.0439896E-1,1.3050294E-2,2.730784E-1,-7.4069476E-1,-6.487017E-2,-5.138615E-1,3.1793198E-1,-8.009959E-2,-8.859042E-1,6.298719E-1,-5.6641984E-1,-9.00043E-1],"categories":[],"categories_nodes":[],"categories_segments":[],"categories_sizes":[],"default_left":[1,1,1,1,1,1,1,0,0,0,0,0,0,0,0],"id":47,"left_children":[1,3,5,7,9,11,13,-1,-1,-1,-1,-1,-1,-1,-1],"loss_changes":[4.915776E1,6.970383E1,2.444622E1,1.7598059E2,6.563047E1,1.2021567E1,4.695549E0,0E0,0E0,0E0,0E0,0E0,0E0,0E0,0E0],"parents":[2147483647,0,0,1,1,2,2,3,3,4,4,5,5,6,6],"right_children":[2,4,6,8,10,12,14,-1,-1,-1,-1,-1,-1,-1,-1],"split_conditions":[1.1787362E0,3.197243E-2,-4.025626E0,-8.59648E-3,6.275412E-2,4.5005617E0,1.823426E0,-6.487017E-3,-5.1386148E-2,3.17932E-2,-8.009959E-3,-8.859042E-2,6.298719E-2,-5.6641985E-2,-9.00043E-2],"split_indices":[1,1,0,1,1,1,1,0,0,0,0,0,0,0,0],"split_type":[0,0,0,0,0,0,0,0,0,0,0,0,0,0,0],"sum_hessian":[6.5976084E3,6.384444E3,2.1316443E2,4.0753835E3,2.30906E3,2.6722073E1,1.8644235E2,2.8097488E3,1.2656348E3,5.398162E2,1.7692439E3,5.940951E0,2.0781122E1,9.122576E1,9.52166E1],"tree_param":{"num_deleted":"0","num_feature":"2","num_nodes":"15","size_leaf_vector":"0"}},{"base_weights":[-1.2710528E-1,-5.268156E-3,-1.9358177E-1,-1.1080803E-1,3.7801746E-1,-4.8862743E-1,-4.6231393E-2,1.6197288E-1,-1.752257E-1,-7.1653634E-1,5.842535E-1,-5.496309E-1,2.1682256E-1,1.03661595E-2,-3.7816697E-1],"categories":[],"categories_nodes":[],"categories_segments":[],"categories_sizes":[],"default_left":[1,1,1,1,1,1,1,0,0,0,0,0,0,0,0],"id":48,"left_children":[1,3,5,7,9,11,13,-1,-1,-1,-1,-1,-1,-1,-1],"loss_changes":[5.2417526E1,9.250278E1,1.8201993E2,3.1534437E1,1.1186935E2,6.0134277E1,5.248872E1,0E0,0E0,0E0,0E0,0E0,0E0,0E0,0E0],"parents":[2147483647,0,0,1,1,2,2,3,3,4,4,5,5,6,6],"right_children":[2,4,6,8,10,12,14,-1,-1,-1,-1,-1,-1,-1,-1],"split_conditions":[-3.2688282E-2,-6.0818817E-2,1.5836325E-2,-1.2177735E-1,-1.8312801E-1,7.3802376E-1,7.210339E-1,1.6197288E-2,-1.7522572E-2,-7.1653634E-2,5.842535E-2,-5.496309E-2,2.1682257E-2,1.0366159E-3,-3.78167E-2],"split_indices":[1,1,1,0,0,0,1,0,0,0,0,0,0,0,0],"split_type":[0,0,0,0,0,0,0,0,0,0,0,0,0,0,0],"sum_hessian":[6.470982E3,2.2846987E3,4.186283E3,1.7919783E3,4.9272052E2,1.3935685E3,2.7927148E3,3.4204626E2,1.449932E3,7.772695E1,4.1499356E2,1.2828551E3,1.1071341E2,2.3867283E3,4.0598663E2],"tree_param":{"num_deleted":"0","num_feature":"2","num_nodes":"15","size_leaf_vector":"0"}},{"base_weights":[-1.2517186E-1,-1.4835308E-2,-2.0999943E-1,-5.8321166E-1,6.2908554E-3,-5.5666834E-1,-9.434331E-2,-1.010777E0,8.6372274E-1,8.187688E-1,-3.526558E-2,-6.211266E-1,-1.322282E-1,-7.239405E-2,-8.544373E-1],"categories":[],"categories_nodes":[],"categories_segments":[],"categories_sizes":[],"default_left":[1,1,1,1,1,1,1,0,0,0,0,0,0,0,0],"id":49,"left_children":[1,3,5,7,9,11,13,-1,-1,-1,-1,-1,-1,-1,-1],"loss_changes":[5.9866455E1,3.3400974E1,1.449393E2,6.2544952E1,9.060529E1,2.4662323E1,4.5197395E1,0E0,0E0,0E0,0E0,0E0,0E0,0E0,0E0],"parents":[2147483647,0,0,1,1,2,2,3,3,4,4,5,5,6,6],"right_children":[2,4,6,8,10,12,14,-1,-1,-1,-1,-1,-1,-1,-1],"split_conditions":[-2.2995599E-2,-3.5236592E0,2.2308666E-2,4.5005617E0,-2.5880914E0,1.7706996E-1,1.0755662E0,-1.010777E-1,8.637228E-2,8.187688E-2,-3.526558E-3,-6.211266E-2,-1.322282E-2,-7.239405E-3,-8.544373E-2],"split_indices":[0,0,0,1,0,1,1,0,0,0,0,0,0,0,0],"split_type":[0,0,0,0,0,0,0,0,0,0,0,0,0,0,0],"sum_hessian":[6.395607E3,2.7803442E3,3.6152627E3,9.868646E1,2.6816577E3,9.0344714E2,2.7118154E3,7.640919E1,2.2277277E1,1.2957666E2,2.552081E3,7.8393085E2,1.1951626E2,2.6367688E3,7.504681E1],"tree_param":{"num_deleted":"0","num_feature":"2","num_nodes":"15","size_leaf_vector":"0"}},{"base_weights":[-1.0063175E-1,1.8929629E-2,-1.6605178E-1,-4.3954483E-1,7.902797E-2,-4.668812E-1,-4.7747407E-2,-5.375262E-1,1.0314349E0,1.0006591E-2,4.3549165E-1,-1.8294197E-1,-6.619145E-1,-4.864193E-3,-3.5852566E-1],"categories":[],"categories_nodes":[],"categories_segments":[],"categories_sizes":[],"default_left":[1,1,1,1,1,1,1,0,0,0,0,0,0,0,0],"id":50,"left_children":[1,3,5,7,9,11,13,-1,-1,-1,-1,-1,-1,-1,-1],"loss_changes":[4.9725677E1,6.200527E1,1.4621098E2,3.814373E1,4.893937E1,6.409808E1,3.9316555E1,0E0,0E0,0E0,0E0,0E0,0E0,0E0,0E0],"parents":[2147483647,0,0,1,1,2,2,3,3,4,4,5,5,6,6],"right_children":[2,4,6,8,10,12,14,-1,-1,-1,-1,-1,-1,-1,-1],"split_conditions":[-3.3534072E-2,-1.1080467E0,6.8594096E-3,5.856636E0,8.8822365E-1,-9.406699E-3,7.673193E-1,-5.375262E-2,1.0314349E-1,1.0006591E-3,4.3549165E-2,-1.8294198E-2,-6.619146E-2,-4.864193E-4,-3.5852566E-2],"split_indices":[1,1,1,0,0,1,1,0,0,0,0,0,0,0,0],"split_type":[0,0,0,0,0,0,0,0,0,0,0,0,0,0,0],"sum_hessian":[6.35599E3,2.2480938E3,4.1078965E3,2.59804E2,1.9882899E3,1.1586599E3,2.9492363E3,2.4417421E2,1.5629762E1,1.6666145E3,3.2167535E2,4.725851E2,6.860748E2,2.5925193E3,3.567171E2],"tree_param":{"num_deleted":"0","num_feature":"2","num_nodes":"15","size_leaf_vector":"0"}},{"base_weights":[-9.638523E-2,-4.7975013E-1,-7.9669334E-2,-5.6083137E-1,5.5126905E-1,-1.1452332E-1,2.9898837E-1,-6.965926E-1,-3.7377453E-1,7.9282856E-1,-4.1691616E-1,1.7674091E-1,-1.5460123E-1,4.1259828E-1,-9.5393425E-1],"categories":[],"categories_nodes":[],"categories_segments":[],"categories_sizes":[],"default_left":[1,1,1,1,1,1,1,0,0,0,0,0,0,0,0],"id":51,"left_children":[1,3,5,7,9,11,13,-1,-1,-1,-1,-1,-1,-1,-1],"loss_changes":[4.0127064E1,2.2184147E1,7.9313484E1,5.9129486E0,4.91038E0,6.424705E1,7.250482E1,0E0,0E0,0E0,0E0,0E0,0E0,0E0,0E0],"parents":[2147483647,0,0,1,1,2,2,3,3,4,4,5,5,6,6],"right_children":[2,4,6,8,10,12,14,-1,-1,-1,-1,-1,-1,-1,-1],"split_conditions":[-1.0776645E0,5.851063E0,8.8104343E-1,-1.5600059E0,1.5860488E1,-2.1634895E-1,3.4880848E0,-6.965926E-2,-3.7377454E-2,7.928286E-2,-4.1691616E-2,1.7674092E-2,-1.5460123E-2,4.125983E-2,-9.539343E-2],"split_indices":[1,0,0,1,0,1,0,0,0,0,0,0,0,0,0],"split_type":[0,0,0,0,0,0,0,0,0,0,0,0,0,0,0],"sum_hessian":[6.26671E3,2.6067395E2,6.0060356E3,2.4209148E2,1.8582472E1,5.500439E3,5.0559674E2,1.3870143E2,1.03390045E2,1.5016913E1,3.5655584E0,6.649E2,4.835539E3,4.6417767E2,4.1419044E1],"tree_param":{"num_deleted":"0","num_feature":"2","num_nodes":"15","size_leaf_vector":"0"}},{"base_weights":[-9.620131E-2,1.0796406E-1,-1.2747647E-1,5.362851E-1,-4.278909E-1,-1.8191414E-1,1.4959301E-1,1.5040694E-2,1.1262641E0,-5.018882E-1,6.031548E-1,-1.955244E-2,-3.603349E-1,2.1886526E-1,-8.191364E-1],"categories":[],"categories_nodes":[],"categories_segments":[],"categories_sizes":[],"default_left":[1,1,1,1,1,1,1,0,0,0,0,0,0,0,0],"id":52,"left_children":[1,3,5,7,9,11,13,-1,-1,-1,-1,-1,-1,-1,-1],"loss_changes":[3.9731823E1,1.8999875E2,8.139122E1,1.4143123E2,2.8368256E1,1.3061375E2,5.9660713E1,0E0,0E0,0E0,0E0,0E0,0E0,0E0,0E0],"parents":[2147483647,0,0,1,1,2,2,3,3,4,4,5,5,6,6],"right_children":[2,4,6,8,10,12,14,-1,-1,-1,-1,-1,-1,-1,-1],"split_conditions":[-5.965818E-1,7.827935E-2,1.753515E-1,2.9851688E-2,4.49868E0,-1.8483426E-2,1.3122078E0,1.5040694E-3,1.1262641E-1,-5.018882E-2,6.031548E-2,-1.955244E-3,-3.6033493E-2,2.1886526E-2,-8.191364E-2],"split_indices":[0,1,1,1,1,1,1,0,0,0,0,0,0,0,0],"split_type":[0,0,0,0,0,0,0,0,0,0,0,0,0,0,0],"sum_hessian":[6.219228E3,8.2581665E2,5.393411E3,4.5895926E2,3.668574E2,4.5080317E3,8.8537933E2,2.4421852E2,2.1474072E2,3.4277026E2,2.4087132E1,2.3608154E3,2.1472166E3,8.2701495E2,5.8364414E1],"tree_param":{"num_deleted":"0","num_feature":"2","num_nodes":"15","size_leaf_vector":"0"}},{"base_weights":[-6.646819E-2,-5.435874E-2,-4.8148277E-1,-9.674983E-1,-4.4948213E-2,-6.344337E-1,4.8941633E-1,-1.0960604E0,-6.1460775E-1,5.23664E-1,-7.156332E-2,-4.7224924E-1,-7.707635E-1,7.592905E-1,-8.058452E-1],"categories":[],"categories_nodes":[],"categories_segments":[],"categories_sizes":[],"default_left":[1,1,1,1,1,1,1,0,0,0,0,0,0,0,0],"id":53,"left_children":[1,3,5,7,9,11,13,-1,-1,-1,-1,-1,-1,-1,-1],"loss_changes":[3.0893572E1,5.1336082E1,2.6194271E1,2.0911903E0,8.961683E1,2.975048E0,9.101292E0,0E0,0E0,0E0,0E0,0E0,0E0,0E0,0E0],"parents":[2147483647,0,0,1,1,2,2,3,3,4,4,5,5,6,6],"right_children":[2,4,6,8,10,12,14,-1,-1,-1,-1,-1,-1,-1,-1],"split_conditions":[1.1787362E0,-3.5528262E0,5.260159E0,-3.9582825E0,-1.7018468E0,1.7743452E0,-3.8202507E0,-1.0960604E-1,-6.1460774E-2,5.2366402E-2,-7.156332E-3,-4.7224924E-2,-7.707635E-2,7.592905E-2,-8.058452E-2],"split_indices":[1,0,1,0,0,1,0,0,0,0,0,0,0,0,0],"split_type":[0,0,0,0,0,0,0,0,0,0,0,0,0,0,0],"sum_hessian":[6.1514517E3,5.97815E3,1.7330165E2,5.9941948E1,5.918208E3,1.5001547E2,2.328618E1,4.239207E1,1.7549877E1,2.6379272E2,5.654415E3,7.054994E1,7.946552E1,1.961342E1,3.67276E0],"tree_param":{"num_deleted":"0","num_feature":"2","num_nodes":"15","size_leaf_vector":"0"}},{"base_weights":[-7.880798E-2,-1.4751092E-1,7.0451396E-3,-4.6873633E-2,-5.084691E-1,1.6991083E-1,-7.8843646E-2,-3.4793293E-1,3.7367332E-3,-5.699023E-1,1.5682843E0,8.85628E-1,-2.171778E-2,-4.7329414E-1,1.667059E-2],"categories":[],"categories_nodes":[],"categories_segments":[],"categories_sizes":[],"default_left":[1,1,1,1,1,1,1,0,0,0,0,0,0,0,0],"id":54,"left_children":[1,3,5,7,9,11,13,-1,-1,-1,-1,-1,-1,-1,-1],"loss_changes":[3.5989292E1,1.23094E2,3.7965637E1,4.0400475E1,9.515451E1,1.2854364E2,6.695898E1,0E0,0E0,0E0,0E0,0E0,0E0,0E0,0E0],"parents":[2147483647,0,0,1,1,2,2,3,3,4,4,5,5,6,6],"right_children":[2,4,6,8,10,12,14,-1,-1,-1,-1,-1,-1,-1,-1],"split_conditions":[1.3583249E-2,-9.554623E-3,6.8277724E-2,-7.63119E-1,7.790524E-1,-1.5864335E0,-6.892283E-1,-3.4793295E-2,3.7367333E-4,-5.6990232E-2,1.5682843E-1,8.85628E-2,-2.171778E-3,-4.7329415E-2,1.667059E-3],"split_indices":[1,1,1,1,0,0,0,0,0,0,0,0,0,0,0],"split_type":[0,0,0,0,0,0,0,0,0,0,0,0,0,0,0],"sum_hessian":[6.100397E3,3.3882622E3,2.7121348E3,2.650435E3,7.378272E2,9.360954E2,1.7760393E3,3.8059058E2,2.2698445E3,7.1733307E2,2.0494108E1,1.969356E2,7.391598E2,3.454519E2,1.4305874E3],"tree_param":{"num_deleted":"0","num_feature":"2","num_nodes":"15","size_leaf_vector":"0"}},{"base_weights":[-5.9159547E-2,-7.840432E-2,2.2515708E-1,3.2660365E-2,-1.446023E-1,-4.2162427E-1,5.2168125E-1,-5.214133E-1,5.6747984E-2,-2.9070747E-1,-4.9424373E-2,3.8354114E-1,-6.6615343E-1,6.706458E-1,-1.0086975E0],"categories":[],"categories_nodes":[],"categories_segments":[],"categories_sizes":[],"default_left":[1,1,1,1,1,1,1,0,0,0,0,0,0,0,0],"id":55,"left_children":[1,3,5,7,9,11,13,-1,-1,-1,-1,-1,-1,-1,-1],"loss_changes":[3.320662E1,4.1779243E1,7.401955E1,2.835959E1,4.949346E1,2.4179892E1,6.092668E1,0E0,0E0,0E0,0E0,0E0,0E0,0E0,0E0],"parents":[2147483647,0,0,1,1,2,2,3,3,4,4,5,5,6,6],"right_children":[2,4,6,8,10,12,14,-1,-1,-1,-1,-1,-1,-1,-1],"split_conditions":[1.7038918E0,-7.94297E-2,-7.700437E-2,-3.5028524E0,2.7494606E-2,-3.979633E0,3.5180874E0,-5.2141335E-2,5.6747985E-3,-2.9070748E-2,-4.942437E-3,3.8354114E-2,-6.661534E-2,6.7064576E-2,-1.0086975E-1],"split_indices":[0,0,1,0,0,1,0,0,0,0,0,0,0,0,0],"split_type":[0,0,0,0,0,0,0,0,0,0,0,0,0,0,0],"sum_hessian":[6.064665E3,5.680864E3,3.838012E2,2.121683E3,3.5591807E3,1.2051368E2,2.632875E2,8.753434E1,2.0341487E3,1.4031646E3,2.1560164E3,2.7941555E1,9.257213E1,2.404448E2,2.284272E1],"tree_param":{"num_deleted":"0","num_feature":"2","num_nodes":"15","size_leaf_vector":"0"}},{"base_weights":[-6.43873E-2,2.5591202E-2,-1.3158594E-1,1.9660787E-1,-4.946336E-2,-3.4609973E-1,-2.030261E-2,-7.281954E-2,5.188266E-1,1.5800895E-1,-1.394001E-1,3.776515E-1,-3.8376278E-1,-9.70103E-2,1.7197546E-1],"categories":[],"categories_nodes":[],"categories_segments":[],"categories_sizes":[],"default_left":[1,1,1,1,1,1,1,0,0,0,0,0,0,0,0],"id":56,"left_children":[1,3,5,7,9,11,13,-1,-1,-1,-1,-1,-1,-1,-1],"loss_changes":[3.6380676E1,3.303598E1,8.221471E1,6.818746E1,3.340405E1,3.2212463E1,3.3480946E1,0E0,0E0,0E0,0E0,0E0,0E0,0E0,0E0],"parents":[2147483647,0,0,1,1,2,2,3,3,4,4,5,5,6,6],"right_children":[2,4,6,8,10,12,14,-1,-1,-1,-1,-1,-1,-1,-1],"split_conditions":[-3.1783734E-2,-2.4132738E-2,5.3658366E-2,-1.4244308E-1,-9.4226456E-1,-3.7957537E-1,2.8910927E-2,-7.281954E-3,5.1882662E-2,1.5800895E-2,-1.3940009E-2,3.7765153E-2,-3.837628E-2,-9.70103E-3,1.7197547E-2],"split_indices":[0,1,0,0,0,1,1,0,0,0,0,0,0,0,0],"split_type":[0,0,0,0,0,0,0,0,0,0,0,0,0,0,0],"sum_hessian":[6.0153257E3,2.5720237E3,3.4433022E3,7.8400287E2,1.7880208E3,1.1754165E3,2.2678857E3,4.2740042E2,3.5660245E2,5.4047003E2,1.2475507E3,5.7694935E1,1.1177216E3,1.6214984E3,6.463874E2],"tree_param":{"num_deleted":"0","num_feature":"2","num_nodes":"15","size_leaf_vector":"0"}},{"base_weights":[-7.445322E-2,-8.739237E-2,2.5085694E-1,-7.2826766E-3,-1.6028336E-1,5.6271875E-1,-3.7799466E-1,-9.3140763E-1,3.7199392E-3,-4.888154E-1,-6.4975E-2,7.063341E-1,-7.582034E-1,4.9402478E-1,-8.0107784E-1],"categories":[],"categories_nodes":[],"categories_segments":[],"categories_sizes":[],"default_left":[1,1,1,1,1,1,1,0,0,0,0,0,0,0,0],"id":57,"left_children":[1,3,5,7,9,11,13,-1,-1,-1,-1,-1,-1,-1,-1],"loss_changes":[2.5147633E1,3.352553E1,4.5044415E1,2.7826548E1,9.409765E1,2.9601486E1,2.85761E1,0E0,0E0,0E0,0E0,0E0,0E0,0E0,0E0],"parents":[2147483647,0,0,1,1,2,2,3,3,4,4,5,5,6,6],"right_children":[2,4,6,8,10,12,14,-1,-1,-1,-1,-1,-1,-1,-1],"split_conditions":[2.5334744E0,-1.5577656E-2,3.4425695E0,-1.8563814E0,2.2308666E-2,-3.1414226E-2,-3.9721966E0,-9.3140766E-2,3.7199393E-4,-4.8881542E-2,-6.4975E-3,7.063341E-2,-7.582034E-2,4.940248E-2,-8.0107786E-2],"split_indices":[0,0,0,1,0,1,1,0,0,0,0,0,0,0,0],"split_type":[0,0,0,0,0,0,0,0,0,0,0,0,0,0,0],"sum_hessian":[5.968185E3,5.7405854E3,2.2759932E2,2.735394E3,3.0051917E3,1.5221674E2,7.538258E1,3.1200111E1,2.7041938E3,6.7484454E2,2.3303472E3,1.3770972E2,1.4507019E1,2.4571152E1,5.081143E1],"tree_param":{"num_deleted":"0","num_feature":"2","num_nodes":"15","size_leaf_vector":"0"}},{"base_weights":[-3.1526234E-2,-1.0232029E-1,5.5553466E-2,-1.9524907E-3,-5.077983E-1,8.486433E-2,-3.6739254E-1,-3.159254E-1,4.052589E-2,1.1836406E0,-5.816684E-1,-1.0027802E0,1.033697E-1,4.256307E-1,-5.402519E-1],"categories":[],"categories_nodes":[],"categories_segments":[],"categories_sizes":[],"default_left":[1,1,1,1,1,1,1,0,0,0,0,0,0,0,0],"id":58,"left_children":[1,3,5,7,9,11,13,-1,-1,-1,-1,-1,-1,-1,-1],"loss_changes":[3.6686905E1,1.3358022E2,3.3116554E1,3.5116962E1,8.20618E1,5.035504E1,2.3966394E1,0E0,0E0,0E0,0E0,0E0,0E0,0E0,0E0],"parents":[2147483647,0,0,1,1,2,2,3,3,4,4,5,5,6,6],"right_children":[2,4,6,8,10,12,14,-1,-1,-1,-1,-1,-1,-1,-1],"split_conditions":[1.3582623E-2,-8.595853E-3,1.1270392E0,-8.609133E-1,-7.4898314E-1,-3.6322455E0,-3.4893837E0,-3.159254E-2,4.052589E-3,1.1836406E-1,-5.816684E-2,-1.0027802E-1,1.033697E-2,4.256307E-2,-5.402519E-2],"split_indices":[1,1,1,1,0,0,0,0,0,0,0,0,0,0,0],"split_type":[0,0,0,0,0,0,0,0,0,0,0,0,0,0,0],"sum_hessian":[5.9491797E3,3.2813406E3,2.6678394E3,2.6310762E3,6.502643E2,2.4956836E3,1.7215572E2,3.127788E2,2.3182974E3,2.658191E1,6.236824E2,4.086178E1,2.4548218E3,3.0548182E1,1.4160754E2],"tree_param":{"num_deleted":"0","num_feature":"2","num_nodes":"15","size_leaf_vector":"0"}},{"base_weights":[-4.335131E-2,-1.04804605E-1,2.8204426E-2,-1.9655257E-2,-4.8106444E-1,6.220057E-2,-2.696213E-1,-8.5190535E-1,-4.84418E-3,1.5696273E0,-5.5963296E-1,-8.7580895E-1,7.954047E-2,-3.506715E-1,5.865966E-1],"categories":[],"categories_nodes":[],"categories_segments":[],"categories_sizes":[],"default_left":[1,1,1,1,1,1,1,0,0,0,0,0,0,0,0],"id":59,"left_children":[1,3,5,7,9,11,13,-1,-1,-1,-1,-1,-1,-1,-1],"loss_changes":[2.6003815E1,1.0191057E2,2.7684862E1,3.1985332E1,9.545914E1,3.9976032E1,1.9647705E1,0E0,0E0,0E0,0E0,0E0,0E0,0E0,0E0],"parents":[2147483647,0,0,1,1,2,2,3,3,4,4,5,5,6,6],"right_children":[2,4,6,8,10,12,14,-1,-1,-1,-1,-1,-1,-1,-1],"split_conditions":[1.02628125E-2,-9.440208E-3,8.271158E-1,-1.3814018E0,-7.2358763E-1,-3.517343E0,5.603223E0,-8.5190535E-2,-4.8441798E-4,1.5696274E-1,-5.5963296E-2,-8.75809E-2,7.954047E-3,-3.5067152E-2,5.865966E-2],"split_indices":[1,1,1,0,0,0,1,0,0,0,0,0,0,0,0],"split_type":[0,0,0,0,0,0,0,0,0,0,0,0,0,0,0],"sum_hessian":[5.9118657E3,3.1801948E3,2.731671E3,2.5941736E3,5.860213E2,2.4525132E3,2.7915775E2,4.4371544E1,2.549802E3,2.0923578E1,5.650977E2,4.361532E1,2.4088977E3,2.5555698E2,2.3600763E1],"tree_param":{"num_deleted":"0","num_feature":"2","num_nodes":"15","size_leaf_vector":"0"}},{"base_weights":[-4.1538756E-2,-3.136346E-2,-4.216252E-1,-9.5447266E-1,-2.370616E-2,5.149857E-1,-6.0457164E-1,-1.0556651E0,-6.861235E-1,4.0883806E-1,-4.6302784E-2,-7.910457E-1,7.457124E-1,-4.5391297E-1,-8.105269E-1],"categories":[],"categories_nodes":[],"categories_segments":[],"categories_sizes":[],"default_left":[1,1,1,1,1,1,1,0,0,0,0,0,0,0,0],"id":60,"left_children":[1,3,5,7,9,11,13,-1,-1,-1,-1,-1,-1,-1,-1],"loss_changes":[2.2775463E1,4.0549404E1,2.662231E1,5.5726624E-1,5.566861E1,8.313681E0,3.6323318E0,0E0,0E0,0E0,0E0,0E0,0E0,0E0,0E0],"parents":[2147483647,0,0,1,1,2,2,3,3,4,4,5,5,6,6],"right_children":[2,4,6,8,10,12,14,-1,-1,-1,-1,-1,-1,-1,-1],"split_conditions":[1.1787362E0,-3.5460453E0,-4.5686493E0,-3.9582825E0,-1.7019398E0,5.1836433E0,-3.6407384E-1,-1.0556652E-1,-6.861235E-2,4.0883806E-2,-4.6302783E-3,-7.910457E-2,7.4571244E-2,-4.53913E-2,-8.105269E-2],"split_indices":[1,0,0,0,0,1,0,0,0,0,0,0,0,0,0],"split_type":[0,0,0,0,0,0,0,0,0,0,0,0,0,0,0],"sum_hessian":[5.891368E3,5.738817E3,1.5255138E2,4.6195282E1,5.6926216E3,2.4631779E1,1.2791959E2,3.1414997E1,1.4780283E1,2.8177603E2,5.4108457E3,3.3335702E0,2.1298208E1,7.57278E1,5.21918E1],"tree_param":{"num_deleted":"0","num_feature":"2","num_nodes":"15","size_leaf_vector":"0"}},{"base_weights":[-4.0695716E-2,-3.8365665E-1,-3.073928E-2,-5.014183E-1,3.2087937E-1,-5.36994E-2,1.7457072E-1,-5.6682414E-1,-2.254022E-1,4.803507E-1,-7.374324E-1,2.0144907E-1,-9.7990036E-2,-6.069482E-1,3.429125E-1],"categories":[],"categories_nodes":[],"categories_segments":[],"categories_sizes":[],"default_left":[1,1,1,1,1,1,1,0,0,0,0,0,0,0,0],"id":61,"left_children":[1,3,5,7,9,11,13,-1,-1,-1,-1,-1,-1,-1,-1],"loss_changes":[2.0057724E1,1.3910749E1,2.6938786E1,2.4426804E0,4.4626884E0,5.8092587E1,7.583512E1,0E0,0E0,0E0,0E0,0E0,0E0,0E0,0E0],"parents":[2147483647,0,0,1,1,2,2,3,3,4,4,5,5,6,6],"right_children":[2,4,6,8,10,12,14,-1,-1,-1,-1,-1,-1,-1,-1],"split_conditions":[-1.3733053E0,4.608314E0,8.2891464E-1,-1.5600059E0,-4.9759436E0,-1.811645E-1,-3.7576753E-1,-5.6682415E-2,-2.2540221E-2,4.803507E-2,-7.374325E-2,2.0144908E-2,-9.799004E-3,-6.069482E-2,3.429125E-2],"split_indices":[1,0,0,1,1,1,1,0,0,0,0,0,0,0,0],"split_type":[0,0,0,0,0,0,0,0,0,0,0,0,0,0,0],"sum_hessian":[5.876442E3,1.6472617E2,5.7117153E3,1.4138268E2,2.33435E1,5.1378774E3,5.7383795E2,1.1344637E2,2.7936296E1,2.0761219E1,2.5822809E0,7.594289E2,4.3784487E3,1.01238304E2,4.7259967E2],"tree_param":{"num_deleted":"0","num_feature":"2","num_nodes":"15","size_leaf_vector":"0"}},{"base_weights":[-3.824437E-2,-7.231774E-2,9.891781E-2,2.8724837E-1,-1.1860161E-1,-4.068336E-1,2.3893654E-1,-8.386846E-1,3.8125426E-1,-1.120443E-2,-2.6468202E-1,-5.0458276E-1,3.5899168E-1,5.175941E-1,-6.9431337E-3],"categories":[],"categories_nodes":[],"categories_segments":[],"categories_sizes":[],"default_left":[1,1,1,1,1,1,1,0,0,0,0,0,0,0,0],"id":62,"left_children":[1,3,5,7,9,11,13,-1,-1,-1,-1,-1,-1,-1,-1],"loss_changes":[2.7303291E1,7.790121E1,8.242641E1,5.682845E1,6.504265E1,1.9079262E1,6.2432198E1,0E0,0E0,0E0,0E0,0E0,0E0,0E0,0E0],"parents":[2147483647,0,0,1,1,2,2,3,3,4,4,5,5,6,6],"right_children":[2,4,6,8,10,12,14,-1,-1,-1,-1,-1,-1,-1,-1],"split_conditions":[1.6926524E-1,-5.8833337E-1,-6.7782164E-1,-3.5076828E0,-1.279496E-2,3.8606656E0,-5.4026116E-3,-8.386847E-2,3.8125426E-2,-1.120443E-3,-2.6468202E-2,-5.045828E-2,3.589917E-2,5.175941E-2,-6.943134E-4],"split_indices":[1,0,0,0,1,1,0,0,0,0,0,0,0,0,0],"split_type":[0,0,0,0,0,0,0,0,0,0,0,0,0,0,0],"sum_hessian":[5.8395225E3,4.677922E3,1.161601E3,5.3288495E2,4.1450366E3,2.5145026E2,9.101507E2,4.045256E1,4.924324E2,2.389426E3,1.7556107E3,2.2329079E2,2.815948E1,4.261201E2,4.840306E2],"tree_param":{"num_deleted":"0","num_feature":"2","num_nodes":"15","size_leaf_vector":"0"}},{"base_weights":[-2.2468608E-2,-3.340206E-2,2.509995E-1,-5.880086E-1,-2.4992734E-2,3.7327778E-1,-8.994312E-1,-4.4535452E-1,-8.0069137E-1,3.7190855E-2,-8.348245E-2,-1.5262692E-1,6.157132E-1,2.709369E-1,-9.794621E-1],"categories":[],"categories_nodes":[],"categories_segments":[],"categories_sizes":[],"default_left":[1,1,1,1,1,1,1,0,0,0,0,0,0,0,0],"id":63,"left_children":[1,3,5,7,9,11,13,-1,-1,-1,-1,-1,-1,-1,-1],"loss_changes":[1.7388605E1,2.6057686E1,3.1788189E1,2.1753922E0,2.0035666E1,2.5951994E1,2.304924E0,0E0,0E0,0E0,0E0,0E0,0E0,0E0,0E0],"parents":[2147483647,0,0,1,1,2,2,3,3,4,4,5,5,6,6],"right_children":[2,4,6,8,10,12,14,-1,-1,-1,-1,-1,-1,-1,-1],"split_conditions":[2.5399766E0,-1.5526769E0,-3.268739E-2,1.334374E0,-1.5738446E-2,-8.358343E-2,2.5806618E0,-4.4535454E-2,-8.006914E-2,3.7190856E-3,-8.348245E-3,-1.5262692E-2,6.157132E-2,2.7093692E-2,-9.794621E-2],"split_indices":[0,1,1,0,0,1,0,0,0,0,0,0,0,0,0],"split_type":[0,0,0,0,0,0,0,0,0,0,0,0,0,0,0],"sum_hessian":[5.8118784E3,5.5892925E3,2.2258609E2,8.245342E1,5.506839E3,2.0181128E2,2.077481E1,5.1203415E1,3.125001E1,2.6693123E3,2.8375266E3,6.3794674E1,1.380166E2,1.1770008E0,1.959781E1],"tree_param":{"num_deleted":"0","num_feature":"2","num_nodes":"15","size_leaf_vector":"0"}},{"base_weights":[-3.891843E-2,-3.629021E-1,-2.7071321E-2,-4.5555463E-1,6.1097455E-1,-4.9447063E-2,2.1462618E-1,-2.925283E-1,-6.7743564E-1,7.520479E-1,-6.111004E-1,1.5136763E-1,-8.612638E-2,2.9076484E-1,-9.246038E-1],"categories":[],"categories_nodes":[],"categories_segments":[],"categories_sizes":[],"default_left":[1,1,1,1,1,1,1,0,0,0,0,0,0,0,0],"id":64,"left_children":[1,3,5,7,9,11,13,-1,-1,-1,-1,-1,-1,-1,-1],"loss_changes":[2.2266064E1,1.8744707E1,3.0296164E1,6.582287E0,3.5983386E0,3.7771923E1,4.1443207E1,0E0,0E0,0E0,0E0,0E0,0E0,0E0,0E0],"parents":[2147483647,0,0,1,1,2,2,3,3,4,4,5,5,6,6],"right_children":[2,4,6,8,10,12,14,-1,-1,-1,-1,-1,-1,-1,-1],"split_conditions":[-1.1080467E0,6.223729E0,9.869729E-1,1.320478E0,-6.8667827E0,-1.7194682E-1,3.6769261E0,-2.925283E-2,-6.774356E-2,7.520479E-2,-6.111004E-2,1.5136763E-2,-8.612638E-3,2.9076485E-2,-9.246039E-2],"split_indices":[1,0,0,0,1,1,0,0,0,0,0,0,0,0,0],"split_type":[0,0,0,0,0,0,0,0,0,0,0,0,0,0,0],"sum_hessian":[5.802626E3,2.0365405E2,5.598972E3,1.8644801E2,1.7206041E1,5.1252817E3,4.736902E2,1.0881498E2,7.763304E1,1.5770184E1,1.4358577E0,7.910816E2,4.3342E3,4.4471326E2,2.8976948E1],"tree_param":{"num_deleted":"0","num_feature":"2","num_nodes":"15","size_leaf_vector":"0"}},{"base_weights":[-2.6625376E-2,-7.277342E-2,3.6323752E-2,9.548768E-3,-3.633037E-1,-2.957096E-2,2.0590581E-1,1.5475358E-1,-7.088962E-2,-5.698826E-1,-1.5346253E-1,3.9979056E-2,-3.6878186E-1,2.6617804E-1,-7.671794E-1],"categories":[],"categories_nodes":[],"categories_segments":[],"categories_sizes":[],"default_left":[1,1,1,1,1,1,1,0,0,0,0,0,0,0,0],"id":65,"left_children":[1,3,5,7,9,11,13,-1,-1,-1,-1,-1,-1,-1,-1],"loss_changes":[1.6786228E1,7.9742256E1,2.7322931E1,3.0365463E1,3.182299E1,4.156891E1,4.033248E1,0E0,0E0,0E0,0E0,0E0,0E0,0E0,0E0],"parents":[2147483647,0,0,1,1,2,2,3,3,4,4,5,5,6,6],"right_children":[2,4,6,8,10,12,14,-1,-1,-1,-1,-1,-1,-1,-1],"split_conditions":[2.4459785E-2,-8.387811E-3,4.4563703E-2,-2.5113447E-2,3.2669585E-3,-3.6699714E-3,1.215175E0,1.5475358E-2,-7.0889625E-3,-5.6988258E-2,-1.5346253E-2,3.9979056E-3,-3.6878187E-2,2.6617805E-2,-7.671794E-2],"split_indices":[1,1,0,0,1,0,1,0,0,0,0,0,0,0,0],"split_type":[0,0,0,0,0,0,0,0,0,0,0,0,0,0,0],"sum_hessian":[5.7765234E3,3.3329673E3,2.4435562E3,2.5978342E3,7.3513306E2,1.7603574E3,6.831987E2,9.257593E2,1.672075E3,3.6958145E2,3.6555157E2,1.4615675E3,2.9878995E2,6.440341E2,3.9164577E1],"tree_param":{"num_deleted":"0","num_feature":"2","num_nodes":"15","size_leaf_vector":"0"}},{"base_weights":[-2.575512E-2,-8.160538E-2,3.5711624E-2,-1.5137618E-2,-4.8357627E-1,4.626036E-2,-8.7778383E-1,-9.884671E-1,-4.117531E-3,1.6887183E0,-5.6346726E-1,-2.280029E-2,2.2190972E-1,-3.757968E-1,-9.4853795E-1],"categories":[],"categories_nodes":[],"categories_segments":[],"categories_sizes":[],"default_left":[1,1,1,1,1,1,1,0,0,0,0,0,0,0,0],"id":66,"left_children":[1,3,5,7,9,11,13,-1,-1,-1,-1,-1,-1,-1,-1],"loss_changes":[1.9763182E1,8.057803E1,2.6453066E1,2.776814E1,7.5218E1,3.2886055E1,7.566776E-1,0E0,0E0,0E0,0E0,0E0,0E0,0E0,0E0],"parents":[2147483647,0,0,1,1,2,2,3,3,4,4,5,5,6,6],"right_children":[2,4,6,8,10,12,14,-1,-1,-1,-1,-1,-1,-1,-1],"split_conditions":[6.5124035E-3,-8.38808E-3,1.6882031E0,-1.8246541E0,-7.2358763E-1,4.3296713E-2,1.8328947E0,-9.884671E-2,-4.1175308E-4,1.6887183E-1,-5.6346726E-2,-2.280029E-3,2.2190971E-2,-3.757968E-2,-9.4853796E-2],"split_indices":[1,1,0,0,0,0,0,0,0,0,0,0,0,0,0],"split_type":[0,0,0,0,0,0,0,0,0,0,0,0,0,0,0],"sum_hessian":[5.755088E3,3.015133E3,2.7399548E3,2.5881997E3,4.269333E2,2.7096145E3,3.034036E1,2.7982681E1,2.560217E3,1.44301195E1,4.1250317E2,1.9455474E3,7.640672E2,4.5277963E0,2.5812563E1],"tree_param":{"num_deleted":"0","num_feature":"2","num_nodes":"15","size_leaf_vector":"0"}},{"base_weights":[-3.0341642E-2,-2.1245567E-2,-3.4242472E-1,-5.4436147E-2,1.5770328E-1,2.2537944E-1,-4.7752672E-1,2.4498363E-1,-9.068033E-2,-2.067129E-1,3.803779E-1,-8.312309E-1,4.2532507E-1,-2.2325286E-1,-7.921586E-1],"categories":[],"categories_nodes":[],"categories_segments":[],"categories_sizes":[],"default_left":[1,1,1,1,1,1,1,0,0,0,0,0,0,0,0],"id":67,"left_children":[1,3,5,7,9,11,13,-1,-1,-1,-1,-1,-1,-1,-1],"loss_changes":[1.6345184E1,3.3259846E1,1.2617405E1,5.1279907E1,7.117598E1,7.1189356E0,1.03876915E1,0E0,0E0,0E0,0E0,0E0,0E0,0E0,0E0],"parents":[2147483647,0,0,1,1,2,2,3,3,4,4,5,5,6,6],"right_children":[2,4,6,8,10,12,14,-1,-1,-1,-1,-1,-1,-1,-1],"split_conditions":[1.0776538E0,2.0980665E-1,-3.8231301E0,-6.985543E-1,-2.5597078E-1,4.5005617E0,1.7520627E0,2.4498364E-2,-9.068034E-3,-2.0671291E-2,3.8037788E-2,-8.312309E-2,4.2532507E-2,-2.2325287E-2,-7.921586E-2],"split_indices":[1,1,0,0,0,1,1,0,0,0,0,0,0,0,0],"split_type":[0,0,0,0,0,0,0,0,0,0,0,0,0,0,0],"sum_hessian":[5.7594814E3,5.597406E3,1.6207573E2,4.722242E3,8.751632E2,3.1023314E1,1.3105241E2,5.0927444E2,4.212968E3,3.319633E2,5.4319995E2,4.4340963E0,2.6589216E1,7.3423676E1,5.7628742E1],"tree_param":{"num_deleted":"0","num_feature":"2","num_nodes":"15","size_leaf_vector":"0"}},{"base_weights":[-1.3358094E-2,-1.811631E-3,-2.8813553E-1,-1.0404586E0,3.7447566E-3,-1.2227167E-1,-6.537321E-1,-2.865764E-2,1.5846883E-1,-3.6699107E-1,7.4564874E-1,-9.0590787E-1,-3.050967E-1],"categories":[],"categories_nodes":[],"categories_segments":[],"categories_sizes":[],"default_left":[1,1,1,0,1,1,1,0,0,0,0,0,0],"id":68,"left_children":[1,3,5,-1,7,9,11,-1,-1,-1,-1,-1,-1],"loss_changes":[1.8194172E1,3.177103E1,1.3943296E1,0E0,2.7459103E1,3.4323776E1,6.048649E0,0E0,0E0,0E0,0E0,0E0,0E0],"parents":[2147483647,0,0,1,1,2,2,4,4,5,5,6,6],"right_children":[2,4,6,-1,8,10,12,-1,-1,-1,-1,-1,-1],"split_conditions":[8.777287E-1,-3.9582825E0,3.7501432E-2,-1.0404586E-1,1.6637665E-1,-6.821131E-1,1.0529017E-1,-2.865764E-3,1.5846884E-2,-3.669911E-2,7.4564874E-2,-9.059079E-2,-3.050967E-2],"split_indices":[1,0,0,0,1,0,0,0,0,0,0,0,0],"split_type":[0,0,0,0,0,0,0,0,0,0,0,0,0],"sum_hessian":[5.733753E3,5.503496E3,2.3025662E2,2.8293968E1,5.475202E3,1.5931364E2,7.094297E1,4.5278022E3,9.473999E2,1.2472365E2,3.459E1,4.0238865E1,3.0704107E1],"tree_param":{"num_deleted":"0","num_feature":"2","num_nodes":"13","size_leaf_vector":"0"}},{"base_weights":[-1.040967E-2,-3.6930963E-1,-1.0660217E-3,-4.2930877E-1,1.9250804E-1,3.1387722E-3,-8.621888E-1,-6.103791E-1,-3.346954E-1,1.4113413E0,-8.913804E-2,-1.7577188E-2,2.4555619E-1,-4.813885E-1,-9.726542E-1],"categories":[],"categories_nodes":[],"categories_segments":[],"categories_sizes":[],"default_left":[1,1,1,1,1,1,1,0,0,0,0,0,0,0,0],"id":69,"left_children":[1,3,5,7,9,11,13,-1,-1,-1,-1,-1,-1,-1,-1],"loss_changes":[1.9220604E1,4.9849358E0,2.0233456E1,2.0520935E0,5.179946E0,2.7931902E1,6.7399216E-1,0E0,0E0,0E0,0E0,0E0,0E0,0E0,0E0],"parents":[2147483647,0,0,1,1,2,2,3,3,4,4,5,5,6,6],"right_children":[2,4,6,8,10,12,14,-1,-1,-1,-1,-1,-1,-1,-1],"split_conditions":[-1.3737533E0,7.183634E0,3.6772046E0,-3.5565205E-2,7.9489384E0,1.0488548E0,3.9051518E0,-6.103791E-2,-3.346954E-2,1.4113413E-1,-8.913804E-3,-1.7577189E-3,2.455562E-2,-4.8138853E-2,-9.726542E-2],"split_indices":[1,0,0,0,0,0,0,0,0,0,0,0,0,0,0],"split_type":[0,0,0,0,0,0,0,0,0,0,0,0,0,0,0],"sum_hessian":[5.730734E3,1.4443153E2,5.5863022E3,1.3070844E2,1.3723105E1,5.560149E3,2.6153408E1,4.298768E1,8.772076E1,1.8229932E0,1.1900112E1,5.1232637E3,4.3688483E2,7.085574E0,1.9067833E1],"tree_param":{"num_deleted":"0","num_feature":"2","num_nodes":"15","size_leaf_vector":"0"}},{"base_weights":[-1.5631126E-2,-2.7243385E-2,2.701341E-1,-5.614144E-2,7.855915E-2,3.656384E-1,-9.1723794E-1,2.1324396E-1,-9.2248954E-2,-4.1092926E-1,2.0506269E-1,6.587812E-1,6.832187E-2,-7.9001844E-2,-9.6715355E-1],"categories":[],"categories_nodes":[],"categories_segments":[],"categories_sizes":[],"default_left":[1,1,1,1,1,1,1,0,0,0,0,0,0,0,0],"id":70,"left_children":[1,3,5,7,9,11,13,-1,-1,-1,-1,-1,-1,-1,-1],"loss_changes":[1.9003906E1,1.6826746E1,2.569513E1,4.20612E1,7.320139E1,1.805726E1,6.321058E-1,0E0,0E0,0E0,0E0,0E0,0E0,0E0,0E0],"parents":[2147483647,0,0,1,1,2,2,3,3,4,4,5,5,6,6],"right_children":[2,4,6,8,10,12,14,-1,-1,-1,-1,-1,-1,-1,-1],"split_conditions":[2.5353322E0,1.6734967E-1,-2.987317E-2,-6.968266E-1,-6.634983E-1,3.1678069E0,2.5886502E0,2.1324396E-2,-9.224895E-3,-4.109293E-2,2.0506268E-2,6.5878116E-2,6.832187E-3,-7.900185E-3,-9.671535E-2],"split_indices":[0,1,1,0,0,0,0,0,0,0,0,0,0,0,0],"split_type":[0,0,0,0,0,0,0,0,0,0,0,0,0,0,0],"sum_hessian":[5.7236455E3,5.5010127E3,2.2263263E2,4.321219E3,1.1797937E3,2.0669917E2,1.5933447E1,5.101636E2,3.8110557E3,2.4182726E2,9.379664E2,1.0346796E2,1.03231224E2,1.0406384E0,1.4892808E1],"tree_param":{"num_deleted":"0","num_feature":"2","num_nodes":"15","size_leaf_vector":"0"}},{"base_weights":[-2.1422352E-3,5.553327E-2,-5.084286E-2,-9.6629673E-1,6.3234664E-2,-3.300476E-1,2.3210814E-2,1.8449663E-1,-1.9298967E-3,2.3687778E0,-3.5308278E-1,3.4650024E-2,-8.822505E-1],"categories":[],"categories_nodes":[],"categories_segments":[],"categories_sizes":[],"default_left":[1,1,1,0,1,1,1,0,0,0,0,0,0],"id":71,"left_children":[1,3,5,-1,7,9,11,-1,-1,-1,-1,-1,-1],"loss_changes":[1.602502E1,2.0615929E1,6.3964355E1,0E0,2.0493013E1,4.115275E1,2.5363117E1,0E0,0E0,0E0,0E0,0E0,0E0],"parents":[2147483647,0,0,1,1,2,2,4,4,5,5,6,6],"right_children":[2,4,6,-1,8,10,12,-1,-1,-1,-1,-1,-1],"split_conditions":[-2.2318445E-2,-2.0577936E0,2.2716446E-2,-9.662967E-2,-9.459114E-3,-8.3739424E-1,1.3557695E0,1.8449662E-2,-1.9298967E-4,2.3687778E-1,-3.530828E-2,3.4650024E-3,-8.822505E-2],"split_indices":[0,1,0,0,1,1,1,0,0,0,0,0,0],"split_type":[0,0,0,0,0,0,0,0,0,0,0,0,0],"sum_hessian":[5.7032183E3,2.6109565E3,3.0922617E3,1.8600117E1,2.5923564E3,6.4750714E2,2.4447546E3,9.0550653E2,1.68685E3,4.6180577E0,6.428891E2,2.4152036E3,2.9550917E1],"tree_param":{"num_deleted":"0","num_feature":"2","num_nodes":"13","size_leaf_vector":"0"}},{"base_weights":[-1.4633706E-2,4.0665515E-2,-5.042236E-2,-3.9251097E-2,2.6639032E-1,-3.2426745E-1,2.038436E-2,5.8381118E-2,-2.766622E-1,-6.6514754E-1,4.3112513E-1,7.169944E-1,-3.6624205E-1,-3.6638245E-2,1.5164661E-1],"categories":[],"categories_nodes":[],"categories_segments":[],"categories_sizes":[],"default_left":[1,1,1,1,1,1,1,0,0,0,0,0,0,0,0],"id":72,"left_children":[1,3,5,7,9,11,13,-1,-1,-1,-1,-1,-1,-1,-1],"loss_changes":[1.127739E1,4.0400444E1,6.7081375E1,3.8364574E1,9.014614E1,3.1326515E1,2.0585287E1,0E0,0E0,0E0,0E0,0E0,0E0,0E0,0E0],"parents":[2147483647,0,0,1,1,2,2,3,3,4,4,5,5,6,6],"right_children":[2,4,6,8,10,12,14,-1,-1,-1,-1,-1,-1,-1,-1],"split_conditions":[-2.6629785E-2,-5.9714094E-2,6.0454276E-3,-1.3044764E-1,-1.8111327E-1,-6.7169106E-1,4.149376E-2,5.838112E-3,-2.766622E-2,-6.651475E-2,4.3112513E-2,7.169944E-2,-3.6624204E-2,-3.6638246E-3,1.5164661E-2],"split_indices":[1,1,1,1,0,0,0,0,0,0,0,0,0,0,0],"split_type":[0,0,0,0,0,0,0,0,0,0,0,0,0,0,0],"sum_hessian":[5.696249E3,2.238017E3,3.458232E3,1.6534489E3,5.8456824E2,7.097384E2,2.7484937E3,1.1721653E3,4.8128354E2,8.73855E1,4.9718274E2,2.6878685E1,6.828597E2,1.916607E3,8.3188654E2],"tree_param":{"num_deleted":"0","num_feature":"2","num_nodes":"15","size_leaf_vector":"0"}},{"base_weights":[-5.736354E-3,-2.3609732E-1,7.5237853E-3,7.462006E-2,-4.9324328E-1,2.014529E-1,-1.8475268E-2,-2.5108716E-1,1.2466412E0,4.8737336E-2,-6.339956E-1,3.803101E-1,-1.2571117E-1,-4.680916E-2,2.1928397E-1],"categories":[],"categories_nodes":[],"categories_segments":[],"categories_sizes":[],"default_left":[1,1,1,1,1,1,1,0,0,0,0,0,0,0,0],"id":73,"left_children":[1,3,5,7,9,11,13,-1,-1,-1,-1,-1,-1,-1,-1],"loss_changes":[1.7382639E1,2.4784578E1,2.7136053E1,5.4185966E1,1.2969532E1,3.727778E1,3.1982737E1,0E0,0E0,0E0,0E0,0E0,0E0,0E0,0E0],"parents":[2147483647,0,0,1,1,2,2,3,3,4,4,5,5,6,6],"right_children":[2,4,6,8,10,12,14,-1,-1,-1,-1,-1,-1,-1,-1],"split_conditions":[-7.944418E-1,5.048562E-1,-2.1627727E-1,-1.7706558E-2,-3.251126E0,2.5101194E-1,7.344383E-1,-2.5108716E-2,1.2466412E-1,4.8737335E-3,-6.339956E-2,3.8031008E-2,-1.2571118E-2,-4.680916E-3,2.1928398E-2],"split_indices":[1,0,1,0,1,0,0,0,0,0,0,0,0,0,0],"split_type":[0,0,0,0,0,0,0,0,0,0,0,0,0,0,0],"sum_hessian":[5.689028E3,3.087354E2,5.3802925E3,1.401263E2,1.6860912E2,6.352395E2,4.7450527E3,1.1026827E2,2.985803E1,3.489525E1,1.3371387E2,4.1060406E2,2.2463544E2,4.240512E3,5.045409E2],"tree_param":{"num_deleted":"0","num_feature":"2","num_nodes":"15","size_leaf_vector":"0"}},{"base_weights":[-3.3070212E-3,2.608494E-1,-1.4191994E-2,5.579087E-1,-2.8186795E-1,-7.517715E-3,-5.4304594E-1,-9.2461514E-1,7.924658E-1,-8.280672E-1,5.540202E-1,-3.846539E-2,1.2747777E-1,-2.8272954E-1,-7.837376E-1],"categories":[],"categories_nodes":[],"categories_segments":[],"categories_sizes":[],"default_left":[1,1,1,1,1,1,1,0,0,0,0,0,0,0,0],"id":74,"left_children":[1,3,5,7,9,11,13,-1,-1,-1,-1,-1,-1,-1,-1],"loss_changes":[1.6404886E1,3.6559834E1,1.9336302E1,5.1592358E1,3.7228565E1,2.261524E1,4.0562153E0,0E0,0E0,0E0,0E0,0E0,0E0,0E0,0E0],"parents":[2147483647,0,0,1,1,2,2,3,3,4,4,5,5,6,6],"right_children":[2,4,6,8,10,12,14,-1,-1,-1,-1,-1,-1,-1,-1],"split_conditions":[-2.5880914E0,7.621954E-2,1.3557963E0,3.2751918E-2,3.3973632E0,1.8581277E-1,-6.1322737E-1,-9.246152E-2,7.924658E-2,-8.280672E-2,5.540202E-2,-3.8465392E-3,1.2747777E-2,-2.8272955E-2,-7.837376E-2],"split_indices":[0,1,1,1,1,1,0,0,0,0,0,0,0,0,0],"split_type":[0,0,0,0,0,0,0,0,0,0,0,0,0,0,0],"sum_hessian":[5.7030938E3,2.2479549E2,5.4782983E3,1.4525912E2,7.953637E1,5.411024E3,6.7274376E1,1.9440842E1,1.2581828E2,4.8109352E1,3.1427015E1,4.402473E3,1.0085507E3,3.3364338E1,3.3910034E1],"tree_param":{"num_deleted":"0","num_feature":"2","num_nodes":"15","size_leaf_vector":"0"}},{"base_weights":[-1.9161064E-3,-4.0535432E-1,3.0149352E-3,-8.5369766E-1,3.5824037E-1,3.6819723E-1,-7.1410667E-3,-1.0261266E0,-5.117423E-1,-6.0817255E-3,1.7831029E0,5.5515975E-1,-6.813865E-1,-2.9304672E-3,-6.657676E-1],"categories":[],"categories_nodes":[],"categories_segments":[],"categories_sizes":[],"default_left":[1,1,1,1,1,1,1,0,0,0,0,0,0,0,0],"id":75,"left_children":[1,3,5,7,9,11,13,-1,-1,-1,-1,-1,-1,-1,-1],"loss_changes":[1.13257E1,2.3840511E1,2.0863651E1,2.046173E0,1.3578016E1,3.0247845E1,1.51773205E1,0E0,0E0,0E0,0E0,0E0,0E0,0E0,0E0],"parents":[2147483647,0,0,1,1,2,2,3,3,4,4,5,5,6,6],"right_children":[2,4,6,8,10,12,14,-1,-1,-1,-1,-1,-1,-1,-1],"split_conditions":[-3.51725E0,4.5247526E0,-2.5891132E0,-3.9443493E0,-5.110465E0,8.023165E-2,1.823426E0,-1.0261267E-1,-5.117423E-2,-6.0817256E-4,1.7831029E-1,5.5515975E-2,-6.813865E-2,-2.9304673E-4,-6.6576764E-2],"split_indices":[0,1,0,0,0,1,1,0,0,0,0,0,0,0,0],"split_type":[0,0,0,0,0,0,0,0,0,0,0,0,0,0,0],"sum_hessian":[5.691492E3,6.774399E1,5.6237485E3,4.260849E1,2.51355E1,1.5121494E2,5.472533E3,2.6995434E1,1.5613056E1,2.0810268E1,4.325231E0,1.2875148E2,2.2463459E1,5.4387676E3,3.3765594E1],"tree_param":{"num_deleted":"0","num_feature":"2","num_nodes":"15","size_leaf_vector":"0"}},{"base_weights":[-1.9017138E-2,3.0215751E-2,-6.1554097E-2,1.2643284E-1,-2.2640571E-2,-3.5448626E-1,9.041606E-3,-5.218496E-2,4.5549572E-1,-1.2507364E-1,1.3254221E-1,8.751424E-1,-3.9454427E-1,1.7020725E-2,-9.156911E-1],"categories":[],"categories_nodes":[],"categories_segments":[],"categories_sizes":[],"default_left":[1,1,1,1,1,1,1,0,0,0,0,0,0,0,0],"id":76,"left_children":[1,3,5,7,9,11,13,-1,-1,-1,-1,-1,-1,-1,-1],"loss_changes":[1.1912248E1,1.3412905E1,6.3106438E1,5.4984432E1,2.7083145E1,2.9534897E1,1.8165684E1,0E0,0E0,0E0,0E0,0E0,0E0,0E0,0E0],"parents":[2147483647,0,0,1,1,2,2,3,3,4,4,5,5,6,6],"right_children":[2,4,6,8,10,12,14,-1,-1,-1,-1,-1,-1,-1,-1],"split_conditions":[-1.9226205E-2,-1.16227735E-2,2.2285447E-2,-6.333916E-2,1.6734967E-1,-4.8454633E-1,1.5623157E0,-5.218496E-3,4.554957E-2,-1.2507364E-2,1.3254221E-2,8.7514244E-2,-3.9454427E-2,1.7020724E-3,-9.156911E-2],"split_indices":[0,1,0,1,1,1,1,0,0,0,0,0,0,0,0],"split_type":[0,0,0,0,0,0,0,0,0,0,0,0,0,0,0],"sum_hessian":[5.6862734E3,2.6358235E3,3.0504502E3,9.340791E2,1.7017443E3,5.916047E2,2.4588455E3,6.059865E2,3.280926E2,1.0252145E3,6.765297E2,1.8007135E1,5.7359753E2,2.438784E3,2.0061617E1],"tree_param":{"num_deleted":"0","num_feature":"2","num_nodes":"15","size_leaf_vector":"0"}},{"base_weights":[-1.6914837E-2,-4.2358138E-2,7.6367244E-2,-1.3272284E-2,-2.784118E-1,-1.4354071E-1,2.5037313E-1,2.986094E-1,-4.8375484E-2,-3.800901E-1,-5.5128984E-2,4.048782E-1,-2.2925524E-1,1.0116444E0,-1.5382447E-2],"categories":[],"categories_nodes":[],"categories_segments":[],"categories_sizes":[],"default_left":[1,1,1,1,1,1,1,0,0,0,0,0,0,0,0],"id":77,"left_children":[1,3,5,7,9,11,13,-1,-1,-1,-1,-1,-1,-1,-1],"loss_changes":[1.3461072E1,3.0588705E1,4.6548023E1,4.345634E1,1.1075069E1,2.5362766E1,1.3737408E2,0E0,0E0,0E0,0E0,0E0,0E0,0E0,0E0],"parents":[2147483647,0,0,1,1,2,2,3,3,4,4,5,5,6,6],"right_children":[2,4,6,8,10,12,14,-1,-1,-1,-1,-1,-1,-1,-1],"split_conditions":[1.6232154E-1,6.9048256E-2,-1.78518E-1,-8.578572E-1,1.23474505E-2,2.3915836E-1,-4.976534E-3,2.9860942E-2,-4.8375484E-3,-3.800901E-2,-5.5128983E-3,4.0487822E-2,-2.2925524E-2,1.0116444E-1,-1.5382448E-3],"split_indices":[1,1,0,0,0,1,0,0,0,0,0,0,0,0,0],"split_type":[0,0,0,0,0,0,0,0,0,0,0,0,0,0,0],"sum_hessian":[5.669268E3,4.4547515E3,1.2145167E3,3.967005E3,4.877467E2,5.3657294E2,6.779438E2,4.0056802E2,3.5664368E3,3.346513E2,1.530954E2,7.202417E1,4.645488E2,1.7469987E2,5.0324393E2],"tree_param":{"num_deleted":"0","num_feature":"2","num_nodes":"15","size_leaf_vector":"0"}},{"base_weights":[-5.6466884E-3,-3.1478798E-1,2.2474085E-3,4.204005E-1,-4.3529716E-1,5.94886E-3,-8.9970124E-1,-7.005869E-1,5.8357453E-1,-2.855958E-1,-5.8472794E-1,-1.54865775E-2,2.0834039E-1,-4.6327552E-1,-1.0110868E0],"categories":[],"categories_nodes":[],"categories_segments":[],"categories_sizes":[],"default_left":[1,1,1,1,1,1,1,0,0,0,0,0,0,0,0],"id":78,"left_children":[1,3,5,7,9,11,13,-1,-1,-1,-1,-1,-1,-1,-1],"loss_changes":[1.3848975E1,1.2702046E1,1.848174E1,4.1419163E0,2.5597878E0,2.391917E1,6.314564E-1,0E0,0E0,0E0,0E0,0E0,0E0,0E0,0E0],"parents":[2147483647,0,0,1,1,2,2,3,3,4,4,5,5,6,6],"right_children":[2,4,6,8,10,12,14,-1,-1,-1,-1,-1,-1,-1,-1],"split_conditions":[-1.3352358E0,-7.226959E0,3.6769261E0,6.001634E0,1.3345691E0,8.8414586E-1,3.9047801E0,-7.0058696E-2,5.8357455E-2,-2.855958E-2,-5.8472794E-2,-1.5486578E-3,2.083404E-2,-4.6327554E-2,-1.01108685E-1],"split_indices":[1,1,0,0,0,0,0,0,0,0,0,0,0,0,0],"split_type":[0,0,0,0,0,0,0,0,0,0,0,0,0,0,0],"sum_hessian":[5.6736094E3,1.4030336E2,5.533306E3,1.9408667E1,1.2089469E2,5.5116807E3,2.1625645E1,2.0477E0,1.7360966E1,6.1846966E1,5.9047726E1,4.9846733E3,5.27007E2,5.4461217E0,1.6179523E1],"tree_param":{"num_deleted":"0","num_feature":"2","num_nodes":"15","size_leaf_vector":"0"}},{"base_weights":[-6.7556384E-3,-2.146134E-1,1.0403389E-2,8.626179E-2,-5.586924E-1,-1.2114454E-2,2.0907657E-1,-1.8570687E-1,9.914444E-1,2.6546988E-1,-7.282881E-1,-1.0473946E-1,6.1541237E-2,3.494844E-1,